{"learner":{"attributes":{"best_iteration":"599","best_ntree_limit":"600","scikit_learn":"{\"n_estimators\": 600, \"objective\": \"reg:squarederror\", \"max_depth\": 10, \"max_leaves\": null, \"max_bin\": null, \"grow_policy\": null, \"learning_rate\": 0.1, \"verbosity\": null, \"booster\": null, \"tree_method\": null, \"gamma\": null, \"min_child_weight\": null, \"max_delta_step\": null, \"subsample\": null, \"sampling_method\": null, \"colsample_bytree\": null, \"colsample_bylevel\": null, \"colsample_bynode\": null, \"reg_alpha\": null, \"reg_lambda\": null, \"scale_pos_weight\": null, \"base_score\": null, \"missing\": NaN, \"num_parallel_tree\": null, \"random_state\": null, \"n_jobs\": null, \"monotone_constraints\": null, \"interaction_constraints\": null, \"importance_type\": null, \"gpu_id\": null, \"validate_parameters\": null, \"predictor\": null, \"enable_categorical\": false, \"feature_types\": null, \"max_cat_to_onehot\": null, \"max_cat_threshold\": null, \"eval_metric\": null, \"early_stopping_rounds\": null, \"callbacks\": null, \"_estimator_type\": \"regressor\"}"},"feature_names":["Bedrooms","Bathrooms","Area","Level","Type_Apartment","Type_Duplex","Type_Penthouse","Type_Studio","Delivery_Term_Core & Shell","Delivery_Term_Finished","Delivery_Term_Not Finished","Delivery_Term_Semi Finished","Furnished_No","Furnished_Yes","City_6th of October","City_90 Avenue","City_ABHA","City_AZAD","City_Aeon","City_Agami","City_Agouza","City_Ain Shams","City_Al Burouj","City_Al Hadrah","City_Al Ibrahimiyyah","City_Al Manial","City_Al Maqsad","City_Allegria","City_Alma","City_Amorada","City_Amreya","City_Andalus","City_Asafra","City_Ashgar City","City_Atika","City_Azarita","City_Badr City","City_Badya Palm Hills","City_Baet El Masria","City_Bahray - Anfoshy","City_Bedaya","City_Beit Al Watan","City_Belle Vie","City_Beta Greens","City_Beverly Hills","City_Bloomfields","City_Bolkly","City_Borg al-Arab","City_Cairo Gate","City_Camp Caesar","City_Capital Gardens","City_Capital Heights 2","City_Century City","City_Cleopatra","City_Cleopatra Palace","City_Creek Town","City_Dar Misr","City_De Joya","City_Degla Gardens","City_Degla Palms","City_District 5 Compound","City_Dokki","City_Dreamland","City_EL Patio 5","City_EL Patio 7","City_EL Patio Casa","City_EL Patio ORO","City_Eastown","City_Eco West","City_El Ashgar District","City_El Fardous","City_El Karma","City_El Khamayel","City_Etapa","City_Faisal","City_Fifth Square","City_Fleming","City_Floria","City_Galleria","City_Galleria Moon Valley","City_Garden Hills","City_Gardenia","City_Gesr Al Suez","City_Gianaclis","City_Giza District","City_Glim","City_Granda","City_Green Square","City_Green Yard","City_Hadayek 6th of October","City_Hadayek Helwan","City_Hadayek al-Ahram","City_Hadayek al-Kobba","City_Haptown","City_Haram","City_Heliopolis","City_Helmeyat El Zaytoun","City_Helwan","City_Hexa","City_Hyde Park New Cairo","City_IL Bosco","City_IL Bosco City","City_Imbaba","City_Isola","City_Italian Square","City_Jayd","City_Jewar","City_Joulz","City_Joya","City_Kafr Abdo","City_Kanarya","City_Kardia","City_Karma Kay","City_Karmell","City_Katameya","City_Kayan","City_Keeva","City_Kenz","City_La Mirada","City_Lake View","City_Lake view Residence","City_Laurent","City_L’Avenir","City_Maadi","City_Maadi V","City_Maadi View","City_Maamoura","City_Madinaty","City_Mandara","City_Manshiyya","City_Maryotaya","City_Mena Garden City","City_Miami","City_Midtown","City_Midtown Condo","City_Midtown Sky","City_Mivida","City_Mohandessin","City_Moharam Bik","City_Mokattam","City_Montazah","City_Monte Napoleon","City_Mostakbal City","City_Mountain View - Giza Plateau","City_Mountain View - October Park","City_Mountain View 1","City_Mountain View Chillout Park","City_Mountain View Hyde Park","City_Mountain View iCity","City_Murooj","City_Nakheel","City_Nasr City","City_New Cairo - El Tagamoa","City_New Capital City","City_New Giza","City_New Heliopolis","City_New Nozha","City_Next Point","City_Noor City","City_O West","City_OIA","City_Obour City","City_October Plaza Sodic","City_Odyssia","City_One Kattameya","City_Opera City","City_Palm Hills New Cairo","City_Palm Parks","City_Palm View","City_Park View","City_Porto October","City_Pyramids Hills","City_Raml Station","City_Regents Park","City_Rehab City","City_Rock Eden","City_Rock Vera","City_Roushdy","City_Saba Pasha","City_San Stefano","City_Sarai","City_Sarayat El Kattameya","City_Sephora Heights","City_Seyouf","City_Shatby","City_Sheikh Zayed","City_Sheraton","City_Shorouk City","City_Shubra","City_Sidi Beshr","City_Sidi Gaber","City_Sky Condos Sodic","City_Smoha","City_Sodic East","City_Sodic Westown","City_Sporting","City_Stanley","City_Stau","City_Stone Residence","City_Sun Capital","City_Sun Gate","City_Swan Lake","City_Tag Sultan","City_Taj City","City_Tala","City_Terrace Smouha","City_The Brooks","City_The Estates","City_The Icon Residence","City_The Loft","City_The Median","City_The Village","City_The Waterway Compound","City_Tiba Gardens","City_Trio Gardens","City_Uptown Cairo","City_VGK","City_VYE Sodic","City_Venia","City_Victoria","City_Village Gate","City_Village West","City_Villette","City_Vinci","City_West Somid","City_ZED Towers","City_Zahraa Al Maadi","City_Zamalek","City_Zayed 2000","City_Zayed Dunes","City_Zayed Regency","City_Zed East","City_Zezenia","City_Zizinia El Mostakbal","Payment_Option_Cash","Payment_Option_Cash or Installment","Payment_Option_Installment"],"feature_types":["int","int","int","int","int","int","int","int","int","int","int","int","int","int","int","int","int","int","int","int","int","int","int","int","int","int","int","int","int","int","int","int","int","int","int","int","int","int","int","int","int","int","int","int","int","int","int","int","int","int","int","int","int","int","int","int","int","int","int","int","int","int","int","int","int","int","int","int","int","int","int","int","int","int","int","int","int","int","int","int","int","int","int","int","int","int","int","int","int","int","int","int","int","int","int","int","int","int","int","int","int","int","int","int","int","int","int","int","int","int","int","int","int","int","int","int","int","int","int","int","int","int","int","int","int","int","int","int","int","int","int","int","int","int","int","int","int","int","int","int","int","int","int","int","int","int","int","int","int","int","int","int","int","int","int","int","int","int","int","int","int","int","int","int","int","int","int","int","int","int","int","int","int","int","int","int","int","int","int","int","int","int","int","int","int","int","int","int","int","int","int","int","int","int","int","int","int","int","int","int","int","int","int","int","int","int","int","int","int","int","int","int","int","int","int","int","int","int","int","int","int","int","int","int","int","int","int","int","int","int","int","int","int","int","int","int","int"],"gradient_booster":{"model":{"gbtree_model_param":{"num_parallel_tree":"1","num_trees":"600","size_leaf_vector":"0"},"tree_info":[0,0,0,0,0,0,0,0,0,0,0,0,0,0,0,0,0,0,0,0,0,0,0,0,0,0,0,0,0,0,0,0,0,0,0,0,0,0,0,0,0,0,0,0,0,0,0,0,0,0,0,0,0,0,0,0,0,0,0,0,0,0,0,0,0,0,0,0,0,0,0,0,0,0,0,0,0,0,0,0,0,0,0,0,0,0,0,0,0,0,0,0,0,0,0,0,0,0,0,0,0,0,0,0,0,0,0,0,0,0,0,0,0,0,0,0,0,0,0,0,0,0,0,0,0,0,0,0,0,0,0,0,0,0,0,0,0,0,0,0,0,0,0,0,0,0,0,0,0,0,0,0,0,0,0,0,0,0,0,0,0,0,0,0,0,0,0,0,0,0,0,0,0,0,0,0,0,0,0,0,0,0,0,0,0,0,0,0,0,0,0,0,0,0,0,0,0,0,0,0,0,0,0,0,0,0,0,0,0,0,0,0,0,0,0,0,0,0,0,0,0,0,0,0,0,0,0,0,0,0,0,0,0,0,0,0,0,0,0,0,0,0,0,0,0,0,0,0,0,0,0,0,0,0,0,0,0,0,0,0,0,0,0,0,0,0,0,0,0,0,0,0,0,0,0,0,0,0,0,0,0,0,0,0,0,0,0,0,0,0,0,0,0,0,0,0,0,0,0,0,0,0,0,0,0,0,0,0,0,0,0,0,0,0,0,0,0,0,0,0,0,0,0,0,0,0,0,0,0,0,0,0,0,0,0,0,0,0,0,0,0,0,0,0,0,0,0,0,0,0,0,0,0,0,0,0,0,0,0,0,0,0,0,0,0,0,0,0,0,0,0,0,0,0,0,0,0,0,0,0,0,0,0,0,0,0,0,0,0,0,0,0,0,0,0,0,0,0,0,0,0,0,0,0,0,0,0,0,0,0,0,0,0,0,0,0,0,0,0,0,0,0,0,0,0,0,0,0,0,0,0,0,0,0,0,0,0,0,0,0,0,0,0,0,0,0,0,0,0,0,0,0,0,0,0,0,0,0,0,0,0,0,0,0,0,0,0,0,0,0,0,0,0,0,0,0,0,0,0,0,0,0,0,0,0,0,0,0,0,0,0,0,0,0,0,0,0,0,0,0,0,0,0,0,0,0,0,0,0,0,0,0,0,0,0,0,0,0,0,0,0,0,0,0,0,0,0,0,0,0,0,0,0,0,0,0,0,0,0,0,0,0,0,0,0,0,0,0,0,0,0,0,0,0,0,0,0,0,0,0,0,0,0,0,0,0,0,0,0,0,0,0,0,0,0,0,0,0,0,0,0,0,0,0,0,0,0,0,0,0,0,0,0,0,0,0,0,0,0,0],"trees":[{"base_weights":[2.7528122E6,2.1436092E6,3.8042878E6,2.362035E6,4.2487794E5,3.7048528E6,1.1185397E7,1.718555E6,2.5964532E6,3.8220112E5,5.044949E5,3.6252738E6,1.2013677E7,1.7822829E6,4.0084897E5,3.1550248E6,2.3945518E6,3.0813588E5,3.9739675E5,5.1424388E5,2.9647012E5,4.1020478E6,2.8595065E6,1.7627152E6,4.7074995E6,2.5555834E5,4.764995E5,3.1047148E6,7.4480155E6,2.265164E6,2.9699898E6,1.7849955E5,3.179203E5,4.006608E5,2.41538E5,4.7062112E5,5.737397E5,3.993227E6,8.070909E6,2.8130452E6,1.10063E7,1.6961916E6,2.5797695E6,5.2199995E6,1.4299996E6,1.9656203E5,2.91789E5,2.8953618E6,3.6448822E6,2.171381E6,3.1152645E6,2.9384008E6,9.666667E6,1.8499958E5,4.0291025E5,3.9456288E6,9.004038E6,6.7312495E6,8.827391E6,2.7816388E6,1.36258E7,1.0199997E6,1.3375375E7,1.6518576E6,3.1372545E6,2.3802472E6,3.052691E6,2.7597522E6,3.7704905E6,3.7349278E6,1.2784995E6,2.1477618E6,5.901982E6,3.5915225E6,2.7021278E6,3.0142272E6,1.6245234E6,3.7281388E5,4.1704844E5,3.891291E6,7.626184E6,2.7626025E6,1.3333333E7,1.6249998E6,1.621975E7,1.6328218E6,3.9906725E6,2.704116E6,1.952812E6,9.69593E5,3.1414855E6,2.8127665E6,1.2354995E6,3.8179452E6,1.2499996E6,3.892767E6,2.2959745E6,1.0903995E6,2.0499998E6,2.1912728E6,7.638457E5,4.0243808E6,2.8968052E6,2.5781425E6,3.546507E6,2.5063945E6,3.2271215E6,1.6797364E6,8.799996E5,3.997842E6,2.5672575E6,2.8126092E6,5.9178525E5,1.6153568E6,2.9389635E6,2.7694435E6,1.1624996E6,3.1869568E6,7.7499975E5,2.8401532E6,6.2249956E5,1.7634732E6,4.307138E5,3.31463E6,4.037656E6,3.8120685E6,7.198657E6,2.656481E6,1.4367139E6,2.250485E6,1.2095726E6,3.0854485E6,1.4849995E6,6.9499975E5,2.5857102E6,2.4428255E6,6.036E6,3.3457255E6,2.3200842E6,3.9659285E6,8.078947E6,2.2246778E6,2.825687E6,2.9680282E6,2.0778069E6,5.2643856E5,1.6354998E6,1.5404194E6,1.8863615E6,7.933333E6,1.9956965E6,2.83361E6,1.2749996E6,3.264954E6,1.2666664E6,2.9380488E6,2.1627405E6,4.3199966E5,1.8947054E6,3.4160578E6,4.2553275E6,3.0812495E6,1.2624995E6,2.7174995E6,8.403632E5,2.2849748E6,4.965495E5,9.600921E5,1.3200445E6,1.3868746E6,3.23664E6,2.5000102E6,7.1499956E5,3.3746115E6,1.1428568E6,2.3445685E6,4.4999975E5,3.8559208E6,5.1159835E6,2.3190208E6,1.5669129E6,3.0422668E6,1.157391E6,1.898378E6,2.5744208E6],"categories":[],"categories_nodes":[],"categories_segments":[],"categories_sizes":[],"default_left":[1,1,1,1,1,1,0,1,1,1,1,1,0,1,1,1,1,1,1,1,0,1,1,1,1,1,0,1,0,1,1,0,0,1,0,0,0,1,1,1,1,1,1,0,0,0,0,1,1,1,1,1,0,0,1,1,0,0,0,1,1,0,0,1,0,1,1,1,1,1,1,1,0,1,1,1,1,0,0,1,0,1,0,0,0,1,0,1,0,0,1,1,1,1,0,1,1,0,0,1,0,0,1,1,0,1,1,0,0,1,1,1,1,1,1,1,0,1,0,1,0,1,0,0,0,1,0,1,1,1,1,1,0,0,0,1,0,1,1,1,0,1,0,1,1,0,0,0,0,0,0,0,0,0,0,0,0,0,0,0,0,0,0,0,0,0,0,0,0,0,0,0,0,0,0,0,0,0,0,0,0,0,0,0,0],"id":0,"left_children":[1,3,5,7,9,11,-1,13,15,17,19,21,-1,23,25,27,29,31,33,35,-1,37,39,41,43,45,-1,47,-1,49,51,-1,-1,53,-1,-1,-1,55,57,59,61,63,65,-1,-1,-1,-1,67,69,71,73,75,-1,-1,77,79,-1,-1,-1,81,83,-1,-1,85,-1,87,89,91,93,95,97,99,-1,101,103,105,107,-1,-1,109,-1,111,-1,-1,-1,113,-1,115,-1,-1,117,119,121,123,-1,125,127,-1,-1,129,-1,-1,131,133,-1,135,137,-1,-1,139,141,143,145,147,149,151,-1,153,-1,155,-1,157,-1,-1,-1,159,-1,161,163,165,167,169,-1,-1,-1,171,-1,173,175,177,-1,179,-1,181,183,-1,-1,-1,-1,-1,-1,-1,-1,-1,-1,-1,-1,-1,-1,-1,-1,-1,-1,-1,-1,-1,-1,-1,-1,-1,-1,-1,-1,-1,-1,-1,-1,-1,-1,-1,-1,-1,-1,-1,-1],"loss_changes":[8.4664715E15,3.144599E15,3.5196484E15,1.11691054E15,3.0214927E12,3.1229695E15,0E0,1.6622705E14,6.0674144E14,5.753327E11,5.1070684E11,1.7206584E15,0E0,1.0022789E14,9.004185E11,2.885359E14,2.9146507E14,8.2777735E10,1.6319198E11,5.3714774E11,0E0,1.2297694E15,6.594439E14,9.808095E13,1.2692031E13,1.5319695E10,0E0,1.5093267E14,0E0,2.5425562E14,1.2644384E14,0E0,0E0,1.6752889E11,0E0,0E0,0E0,6.4325725E14,1.8614925E13,5.784505E14,2.2294008E14,1.0636594E14,5.9441005E12,0E0,0E0,0E0,0E0,1.1230534E14,7.939247E13,2.4743521E14,5.384842E13,6.7830955E13,0E0,0E0,5.429946E10,5.345044E14,0E0,0E0,0E0,3.269329E14,1.2929033E14,0E0,0E0,6.8992207E13,0E0,8.977958E12,3.9827769E12,6.917045E13,1.1494406E13,7.7369E13,8.658931E10,1.750575E14,0E0,3.2547262E13,9.386785E12,6.640288E13,2.4834474E11,0E0,0E0,3.8221343E14,0E0,1.9471234E14,0E0,0E0,0E0,3.3667712E13,0E0,2.4202476E12,0E0,0E0,1.403951E12,5.0297825E13,1.2837431E13,1.3241921E12,0E0,6.353062E13,8.574147E12,0E0,0E0,1.626547E14,0E0,0E0,1.1397736E13,4.5466255E11,0E0,3.1924895E13,4.4089987E13,0E0,0E0,3.0307866E14,1.2305752E13,1.9574206E14,2.0035488E12,3.0887257E13,8.309896E13,1.4694828E12,0E0,1.1066252E12,0E0,5.0477677E13,0E0,2.501399E12,0E0,0E0,0E0,4.426769E13,0E0,1.2097144E13,8.409477E12,1.6110637E14,3.252582E12,8.865349E12,0E0,0E0,0E0,1.8566338E13,0E0,2.3123567E13,1.6464489E12,3.0351675E14,0E0,2.2616023E12,0E0,1.9232864E14,2.2914187E13,0E0,0E0,0E0,0E0,0E0,0E0,0E0,0E0,0E0,0E0,0E0,0E0,0E0,0E0,0E0,0E0,0E0,0E0,0E0,0E0,0E0,0E0,0E0,0E0,0E0,0E0,0E0,0E0,0E0,0E0,0E0,0E0,0E0,0E0,0E0,0E0,0E0,0E0,0E0,0E0],"parents":[2147483647,0,0,1,1,2,2,3,3,4,4,5,5,7,7,8,8,9,9,10,10,11,11,13,13,14,14,15,15,16,16,17,17,18,18,19,19,21,21,22,22,23,23,24,24,25,25,27,27,29,29,30,30,33,33,37,37,38,38,39,39,40,40,41,41,42,42,47,47,48,48,49,49,50,50,51,51,54,54,55,55,59,59,60,60,63,63,65,65,66,66,67,67,68,68,69,69,70,70,71,71,73,73,74,74,75,75,76,76,79,79,81,81,85,85,87,87,90,90,91,91,92,92,93,93,95,95,96,96,99,99,102,102,103,103,105,105,106,106,109,109,110,110,111,111,112,112,113,113,114,114,115,115,117,117,119,119,121,121,125,125,127,127,128,128,129,129,130,130,131,131,135,135,137,137,138,138,139,139,141,141,143,143,144,144],"right_children":[2,4,6,8,10,12,-1,14,16,18,20,22,-1,24,26,28,30,32,34,36,-1,38,40,42,44,46,-1,48,-1,50,52,-1,-1,54,-1,-1,-1,56,58,60,62,64,66,-1,-1,-1,-1,68,70,72,74,76,-1,-1,78,80,-1,-1,-1,82,84,-1,-1,86,-1,88,90,92,94,96,98,100,-1,102,104,106,108,-1,-1,110,-1,112,-1,-1,-1,114,-1,116,-1,-1,118,120,122,124,-1,126,128,-1,-1,130,-1,-1,132,134,-1,136,138,-1,-1,140,142,144,146,148,150,152,-1,154,-1,156,-1,158,-1,-1,-1,160,-1,162,164,166,168,170,-1,-1,-1,172,-1,174,176,178,-1,180,-1,182,184,-1,-1,-1,-1,-1,-1,-1,-1,-1,-1,-1,-1,-1,-1,-1,-1,-1,-1,-1,-1,-1,-1,-1,-1,-1,-1,-1,-1,-1,-1,-1,-1,-1,-1,-1,-1,-1,-1,-1,-1],"split_conditions":[2.5E0,5E-1,5E-1,1.5E0,2.5E0,5E-1,1.1185398E6,5E-1,2.5E0,9.25E1,5E-1,5E-1,1.2013678E6,5E-1,9.5E1,5E-1,1.975E2,1.5E0,5E-1,1.5E0,2.9647014E4,5E-1,5E-1,5E-1,1.5E0,7.75E1,4.764995E4,1.355E2,7.4480156E5,5E-1,5E-1,1.7849955E4,3.1792031E4,1.5E0,2.41538E4,4.7062113E4,5.737397E4,5E-1,2.095E2,5E-1,5E-1,5E-1,5E-1,5.2199997E5,1.4299997E5,1.9656203E4,2.91789E4,5E-1,5E-1,5E-1,5E-1,5E-1,9.666667E5,1.8499959E4,1.125E2,5E-1,9.004038E5,6.7312494E5,8.827391E5,5E-1,2.315E2,1.0199997E5,1.3375375E6,5E-1,3.1372547E5,5E-1,5.9E1,5E-1,5E-1,5E-1,5E-1,5E-1,5.901982E5,1.645E2,5E-1,5E-1,5E-1,3.7281387E4,4.1704844E4,5E-1,7.6261844E5,5E-1,1.3333334E6,1.6249998E5,1.621975E6,5E-1,3.9906725E5,5E-1,1.952812E5,9.6959305E4,2.5E0,5E-1,1.115E2,1.055E2,1.2499996E5,5E-1,5E-1,1.0903995E5,2.0499998E5,5E-1,7.638457E4,4.024381E5,1.89E2,1.085E2,3.5465072E5,5E-1,5E-1,1.6797364E5,8.799996E4,5E-1,5E-1,5E-1,4.5E0,5E-1,5E-1,1.425E2,1.1624996E5,3.5E0,7.749998E4,5E-1,6.2249957E4,5E-1,4.3071383E4,3.31463E5,4.037656E5,1.525E2,7.198657E5,5E-1,5E-1,5E-1,1.49E2,1.655E2,1.4849995E5,6.949998E4,2.5857103E5,5E-1,6.036E5,5E-1,4E2,3.5E0,8.078947E5,2.65E2,2.8256872E5,5E-1,2.13E2,5.2643855E4,1.6354998E5,1.5404194E5,1.8863616E5,7.933333E5,1.9956966E5,2.83361E5,1.2749996E5,3.264954E5,1.2666664E5,2.9380488E5,2.1627405E5,4.3199965E4,1.8947055E5,3.4160578E5,4.2553275E5,3.0812497E5,1.2624995E5,2.7174997E5,8.403632E4,2.2849748E5,4.965495E4,9.600921E4,1.3200445E5,1.3868747E5,3.23664E5,2.5000103E5,7.149996E4,3.3746116E5,1.1428568E5,2.3445686E5,4.4999977E4,3.855921E5,5.1159834E5,2.3190208E5,1.566913E5,3.042267E5,1.157391E5,1.898378E5,2.5744208E5],"split_indices":[1,150,136,1,0,215,0,19,0,2,236,235,0,18,2,215,2,0,236,1,0,67,123,185,0,2,0,2,0,185,227,0,0,0,0,0,0,120,2,18,9,174,10,0,0,0,0,185,37,75,234,91,0,0,2,191,0,0,0,227,2,0,0,167,0,234,2,199,8,152,8,36,0,2,10,234,8,0,0,14,0,199,0,0,0,123,0,8,0,0,0,91,2,2,0,225,10,0,0,91,0,0,2,2,0,212,14,0,0,154,234,14,1,235,12,2,0,3,0,127,0,3,0,0,0,2,0,235,3,199,2,2,0,0,0,94,0,94,2,1,0,2,0,89,2,0,0,0,0,0,0,0,0,0,0,0,0,0,0,0,0,0,0,0,0,0,0,0,0,0,0,0,0,0,0,0,0,0,0,0,0,0,0,0,0],"split_type":[0,0,0,0,0,0,0,0,0,0,0,0,0,0,0,0,0,0,0,0,0,0,0,0,0,0,0,0,0,0,0,0,0,0,0,0,0,0,0,0,0,0,0,0,0,0,0,0,0,0,0,0,0,0,0,0,0,0,0,0,0,0,0,0,0,0,0,0,0,0,0,0,0,0,0,0,0,0,0,0,0,0,0,0,0,0,0,0,0,0,0,0,0,0,0,0,0,0,0,0,0,0,0,0,0,0,0,0,0,0,0,0,0,0,0,0,0,0,0,0,0,0,0,0,0,0,0,0,0,0,0,0,0,0,0,0,0,0,0,0,0,0,0,0,0,0,0,0,0,0,0,0,0,0,0,0,0,0,0,0,0,0,0,0,0,0,0,0,0,0,0,0,0,0,0,0,0,0,0,0,0,0,0,0,0],"sum_hessian":[1.3229E4,8.378E3,4.851E3,7.433E3,9.45E2,4.788E3,6.3E1,1.987E3,5.446E3,6.19E2,3.26E2,4.744E3,4.4E1,1.895E3,9.2E1,1.442E3,4.004E3,1.09E2,5.1E2,3.1E2,1.6E1,2.921E3,1.823E3,1.884E3,1.1E1,3.3E1,5.9E1,1.427E3,1.5E1,3.273E3,7.31E2,9E0,1E2,4.98E2,1.2E1,1.84E2,1.26E2,2.845E3,7.6E1,1.814E3,9E0,1.745E3,1.39E2,9E0,2E0,1.5E1,1.8E1,1.033E3,3.94E2,2.951E3,3.22E2,7.29E2,2E0,6E0,4.92E2,2.82E3,2.5E1,3.1E1,4.5E1,1.81E3,4E0,2E0,7E0,1.695E3,5E1,1.02E2,3.7E1,8.98E2,1.35E2,3.79E2,1.5E1,2.934E3,1.7E1,1.46E2,1.76E2,6.88E2,4.1E1,1.66E2,3.26E2,2.781E3,3.9E1,1.808E3,2E0,1E0,3E0,1.683E3,1.2E1,5.5E1,4.7E1,2E0,3.5E1,8.67E2,3.1E1,1.32E2,3E0,3.4E2,3.9E1,1.4E1,1E0,2.844E3,9E1,8.7E1,5.9E1,1.57E2,1.9E1,2.07E2,4.81E2,3.7E1,4E0,2.572E3,2.09E2,1.767E3,4.1E1,1.663E3,2E1,5.2E1,3E0,3.4E1,1E0,8.56E2,1.1E1,1.8E1,1.3E1,4.5E1,8.7E1,3.34E2,6E0,2.6E1,1.3E1,2.681E3,1.63E2,5.1E1,8E0,1E0,1.56E2,2.05E2,2E0,4.23E2,5.8E1,2.554E3,1.8E1,9.4E1,1.15E2,1.456E3,3.11E2,4E1,1E0,1.308E3,3.55E2,2E0,1.8E1,4.9E1,3E0,3.2E1,2E0,7.45E2,1.11E2,2E0,1.6E1,1.81E2,1.53E2,1.9E1,7E0,3E0,1E1,2.629E3,5.2E1,5.3E1,1.1E2,5E0,4.6E1,1.98E2,7E0,4.17E2,6E0,5.7E1,1E0,2.335E3,2.19E2,8E1,1.4E1,1.398E3,5.8E1,2.32E2,7.9E1],"tree_param":{"num_deleted":"0","num_feature":"237","num_nodes":"185","size_leaf_vector":"0"}},{"base_weights":[2.479709E6,1.9310692E6,3.426653E6,2.1278428E6,3.8271294E5,3.3369645E6,1.0084334E7,1.5487919E6,2.338789E6,3.4425725E5,4.5445544E5,3.2651142E6,1.0839006E7,1.6061976E6,3.6180156E5,2.843018E6,2.1565318E6,2.7777356E5,3.5789512E5,4.6315528E5,2.6856706E5,3.693758E6,2.5766485E6,4.359088E6,1.1039024E7,1.5882466E6,4.292166E6,2.3143883E5,4.2964372E5,2.797254E6,6.749764E6,2.0395239E6,2.6769238E6,1.624346E5,2.8644303E5,3.607901E5,2.1924219E5,4.2381338E5,5.1681744E5,3.5953235E6,7.2840235E6,2.5340555E6,1.0049623E7,1.5277456E6,2.3314355E6,4.7501995E6,1.3346664E6,1.7813434E5,2.641458E5,2.6074775E6,3.286954E6,1.9546401E6,2.808989E6,2.6471802E6,9.022222E6,1.6914247E5,3.6277944E5,3.5521788E6,8.138265E6,6.0791595E6,7.9638415E6,2.5048095E6,1.2620114E7,9.519997E5,1.2205029E7,1.4876946E6,2.8296805E6,2.1492362E6,2.7639382E6,2.4847202E6,3.3997668E6,3.219217E6,6.581629E6,1.9331841E6,5.3445725E6,3.2392635E6,2.4357722E6,2.7152085E6,1.4681656E6,3.3575575E5,3.7547112E5,3.503016E6,6.8826305E6,2.4869412E6,1.2444444E7,1.5437498E6,1.5003268E7,1.2939682E7,3.531231E6,1.4703326E6,3.6223028E6,2.4431172E6,1.7615991E6,9.049535E5,2.8420775E6,2.5321492E6,1.1205665E6,3.4416788E6,1.1562496E6,3.2982648E6,1.170277E6,1.9723234E6,6.883005E5,3.6265158E6,2.6173058E6,2.3224045E6,3.2095888E6,2.2602025E6,2.9059262E6,1.5161831E6,8.095996E5,3.4712352E6,7.3322765E6,2.4606915E6,6.5538845E6,1.496968E6,7.1136044E5,2.5002512E6,1.0753121E6,1.1353785E6,1.8408226E6,2.8812085E6,7.3624975E5,2.5058675E6,5.4067995E6,1.5993718E6,3.9071897E5,2.9903728E6,3.6384788E6,3.4331515E6,2.0861311E6,9.886289E5,1.9474998E6,2.0255402E6,1.0900058E6,2.785795E6,1.3529995E6,6.6024975E5,2.328786E6,3.286654E6,8.726744E5,2.2001035E6,5.6336E6,3.0122182E6,2.0928124E6,3.3476232E6,4.387454E6,2.5052322E6,5.377542E5,1.417732E6,1.79809E6,5.794148E5,9.069319E5,2.5559162E6,1.1793746E6,2.9483525E6,1.1822219E6,2.48548E6,6.257646E6,4.031997E5,1.7163802E6,3.5031925E6,2.535589E6,3.364491E6,6.1697505E6,2.4069208E6,1.3184558E6,2.0565642E6,4.4783147E5,8.658609E5,1.1892292E6,1.2713016E6,2.9198625E6,2.2512655E6,6.524371E5,3.0521612E6,1.3864935E6,2.114154E6,4.2749975E5,3.315089E6,7.313573E6,3.7045382E6,5.4645635E6,2.640154E6,1.8714598E6,4.750787E5,1.5537248E6],"categories":[],"categories_nodes":[],"categories_segments":[],"categories_sizes":[],"default_left":[1,1,1,1,1,1,0,1,1,1,1,1,1,1,1,1,1,1,1,1,0,1,1,0,0,1,1,1,0,1,0,1,1,0,0,1,0,0,0,1,1,1,1,1,1,0,0,0,0,1,1,1,1,1,0,0,1,1,0,0,0,1,1,0,1,1,0,1,1,1,1,1,0,1,0,1,1,1,1,0,0,1,0,1,0,0,0,0,0,1,0,1,1,0,1,1,1,1,0,1,1,1,0,0,1,1,1,1,1,0,0,1,0,1,0,1,1,1,0,0,0,1,0,1,0,1,0,1,0,1,1,0,0,1,1,1,0,0,0,0,0,1,0,1,1,1,1,1,1,0,0,0,0,0,0,0,0,0,0,0,0,0,0,0,0,0,0,0,0,0,0,0,0,0,0,0,0,0,0,0,0,0,0,0,0,0,0],"id":1,"left_children":[1,3,5,7,9,11,-1,13,15,17,19,21,23,25,27,29,31,33,35,37,-1,39,41,-1,-1,43,45,47,-1,49,-1,51,53,-1,-1,55,-1,-1,-1,57,59,61,63,65,67,-1,-1,-1,-1,69,71,73,75,77,-1,-1,79,81,-1,-1,-1,83,85,-1,87,89,-1,91,93,95,97,99,-1,101,-1,103,105,107,109,-1,-1,111,-1,113,-1,-1,-1,-1,-1,115,-1,117,119,-1,121,123,125,127,-1,129,131,133,-1,-1,135,137,139,141,143,-1,-1,145,-1,147,-1,149,151,153,-1,-1,-1,155,-1,157,-1,159,-1,161,-1,163,165,-1,-1,167,169,171,-1,-1,-1,-1,-1,173,-1,175,177,179,181,183,185,-1,-1,-1,-1,-1,-1,-1,-1,-1,-1,-1,-1,-1,-1,-1,-1,-1,-1,-1,-1,-1,-1,-1,-1,-1,-1,-1,-1,-1,-1,-1,-1,-1,-1,-1,-1,-1,-1],"loss_changes":[6.8667765E15,2.552061E15,2.8635664E15,9.0443207E14,2.4534665E12,2.545988E15,0E0,1.348813E14,4.9444523E14,4.6274078E11,4.0443576E11,1.390762E15,1.0203769E13,8.460012E13,7.2306446E11,2.391105E14,2.3840504E14,6.3464014E10,1.2601367E11,4.375414E11,0E0,1.00646546E15,5.5510842E14,0E0,0E0,8.119475E13,9.915653E12,1.2223119E10,0E0,1.2413851E14,0E0,2.0835101E14,1.1426868E14,0E0,0E0,1.2888257E11,0E0,0E0,0E0,5.2892093E14,1.4656307E13,5.0377067E14,1.844714E14,8.683323E13,5.091952E12,0E0,0E0,0E0,0E0,9.211846E13,6.696525E13,2.0438139E14,4.3979123E13,5.45638E13,0E0,0E0,4.302517E10,4.3777957E14,0E0,0E0,0E0,2.9069305E14,1.0882206E14,0E0,5.284823E12,5.7529745E13,0E0,7.429857E12,2.9479246E12,5.5328306E13,8.80871E12,5.914358E13,0E0,1.4164587E14,0E0,2.5913954E13,8.073465E12,5.322216E13,1.006633E11,0E0,0E0,3.131074E14,0E0,1.7699345E14,0E0,0E0,0E0,0E0,0E0,3.2977833E13,0E0,1.6877208E12,2.9131958E11,0E0,8.452026E11,5.2028697E13,1.0557646E13,9.3227634E11,0E0,5.398747E13,3.3354154E11,1.3137768E14,0E0,0E0,9.01215E12,1.3837848E11,7.33718E11,2.9774995E13,3.5354023E13,0E0,0E0,2.980106E14,0E0,1.5273548E14,0E0,3.624684E13,9.9699445E11,8.825487E11,0E0,0E0,0E0,5.0710813E11,0E0,5.038104E13,0E0,1.9672376E12,0E0,1.8455609E12,0E0,4.2187316E13,6.6770803E12,0E0,0E0,1.3035333E14,2.6177155E12,6.8462785E12,0E0,0E0,0E0,0E0,0E0,1.4842535E13,0E0,2.330154E13,1.193095E12,2.9020235E14,2.1881838E14,1.4538464E14,1.936269E12,0E0,0E0,0E0,0E0,0E0,0E0,0E0,0E0,0E0,0E0,0E0,0E0,0E0,0E0,0E0,0E0,0E0,0E0,0E0,0E0,0E0,0E0,0E0,0E0,0E0,0E0,0E0,0E0,0E0,0E0,0E0,0E0,0E0,0E0,0E0,0E0,0E0,0E0],"parents":[2147483647,0,0,1,1,2,2,3,3,4,4,5,5,7,7,8,8,9,9,10,10,11,11,12,12,13,13,14,14,15,15,16,16,17,17,18,18,19,19,21,21,22,22,25,25,26,26,27,27,29,29,31,31,32,32,35,35,39,39,40,40,41,41,42,42,43,43,44,44,49,49,50,50,51,51,52,52,53,53,56,56,57,57,61,61,62,62,64,64,65,65,67,67,68,68,69,69,70,70,71,71,73,73,75,75,76,76,77,77,78,78,81,81,83,83,89,89,91,91,92,92,94,94,95,95,96,96,97,97,99,99,100,100,101,101,104,104,105,105,106,106,107,107,108,108,111,111,113,113,115,115,116,116,117,117,121,121,123,123,125,125,127,127,129,129,130,130,133,133,134,134,135,135,141,141,143,143,144,144,145,145,146,146,147,147,148,148],"right_children":[2,4,6,8,10,12,-1,14,16,18,20,22,24,26,28,30,32,34,36,38,-1,40,42,-1,-1,44,46,48,-1,50,-1,52,54,-1,-1,56,-1,-1,-1,58,60,62,64,66,68,-1,-1,-1,-1,70,72,74,76,78,-1,-1,80,82,-1,-1,-1,84,86,-1,88,90,-1,92,94,96,98,100,-1,102,-1,104,106,108,110,-1,-1,112,-1,114,-1,-1,-1,-1,-1,116,-1,118,120,-1,122,124,126,128,-1,130,132,134,-1,-1,136,138,140,142,144,-1,-1,146,-1,148,-1,150,152,154,-1,-1,-1,156,-1,158,-1,160,-1,162,-1,164,166,-1,-1,168,170,172,-1,-1,-1,-1,-1,174,-1,176,178,180,182,184,186,-1,-1,-1,-1,-1,-1,-1,-1,-1,-1,-1,-1,-1,-1,-1,-1,-1,-1,-1,-1,-1,-1,-1,-1,-1,-1,-1,-1,-1,-1,-1,-1,-1,-1,-1,-1,-1,-1],"split_conditions":[2.5E0,5E-1,5E-1,1.5E0,2.5E0,5E-1,1.00843344E6,5E-1,2.5E0,9.25E1,5E-1,5E-1,1.805E2,5E-1,9.5E1,5E-1,1.975E2,1.5E0,5E-1,1.5E0,2.6856707E4,5E-1,5E-1,4.359088E5,1.1039024E6,5E-1,1.5E0,7.75E1,4.296437E4,1.355E2,6.7497644E5,5E-1,5E-1,1.624346E4,2.8644303E4,1.5E0,2.1924219E4,4.238134E4,5.1681746E4,5E-1,2.095E2,5E-1,5E-1,5E-1,5E-1,4.7501997E5,1.3346664E5,1.7813436E4,2.6414582E4,5E-1,5E-1,5E-1,5E-1,5E-1,9.022222E5,1.6914248E4,1.125E2,5E-1,8.138265E5,6.0791594E5,7.963842E5,5E-1,2.315E2,9.519997E4,3.455E2,5E-1,2.8296806E5,5E-1,5.9E1,5E-1,5E-1,5E-1,6.5816294E5,5E-1,5.3445725E5,1.645E2,5E-1,5E-1,5E-1,3.3575574E4,3.7547113E4,5E-1,6.8826306E5,5E-1,1.2444444E6,1.5437498E5,1.5003269E6,1.2939682E6,3.531231E5,5E-1,3.6223028E5,5E-1,7.65E1,9.049535E4,2.5E0,5E-1,1.115E2,1.055E2,1.1562496E5,5E-1,5E-1,5E-1,6.8830055E4,3.626516E5,1.89E2,1.085E2,7.5E0,5E-1,5E-1,1.5161831E5,8.095996E4,8.5E0,7.332277E5,5E-1,6.5538844E5,5E-1,5E-1,1.425E2,1.0753121E5,1.1353785E5,1.8408227E5,3.5E0,7.362498E4,5E-1,5.4067994E5,5E-1,3.90719E4,1.5E0,3.6384788E5,5E-1,5E-1,9.886289E4,1.9474998E5,5E-1,1.49E2,1.655E2,1.3529995E5,6.602498E4,2.3287861E5,3.286654E5,8.726744E4,5E-1,5.6336E5,5E-1,4E2,5E-1,2.515E2,5E-1,4.5E0,1.417732E5,1.79809E5,5.794148E4,9.069319E4,2.5559162E5,1.1793746E5,2.9483525E5,1.1822219E5,2.48548E5,6.257646E5,4.031997E4,1.7163803E5,3.5031925E5,2.535589E5,3.364491E5,6.1697506E5,2.4069208E5,1.3184558E5,2.0565642E5,4.478315E4,8.6586086E4,1.1892293E5,1.27130164E5,2.9198625E5,2.2512655E5,6.5243715E4,3.0521612E5,1.3864936E5,2.114154E5,4.2749977E4,3.315089E5,7.313573E5,3.7045384E5,5.464564E5,2.640154E5,1.8714598E5,4.750787E4,1.5537248E5],"split_indices":[1,150,136,1,0,215,0,19,0,2,236,235,2,18,2,215,2,0,236,1,0,67,123,0,0,185,0,2,0,2,0,185,227,0,0,0,0,0,0,120,2,18,9,174,10,0,0,0,0,185,225,75,234,91,0,0,2,191,0,0,0,227,2,0,2,167,0,234,2,199,8,37,0,36,0,2,10,234,8,0,0,201,0,60,0,0,0,0,0,89,0,8,2,0,0,48,2,2,0,152,8,91,0,0,2,2,3,212,14,0,0,3,0,199,0,235,9,2,0,0,0,3,0,136,0,3,0,0,0,60,10,0,0,199,2,2,0,0,0,0,0,94,0,161,2,154,2,14,1,0,0,0,0,0,0,0,0,0,0,0,0,0,0,0,0,0,0,0,0,0,0,0,0,0,0,0,0,0,0,0,0,0,0,0,0,0,0],"split_type":[0,0,0,0,0,0,0,0,0,0,0,0,0,0,0,0,0,0,0,0,0,0,0,0,0,0,0,0,0,0,0,0,0,0,0,0,0,0,0,0,0,0,0,0,0,0,0,0,0,0,0,0,0,0,0,0,0,0,0,0,0,0,0,0,0,0,0,0,0,0,0,0,0,0,0,0,0,0,0,0,0,0,0,0,0,0,0,0,0,0,0,0,0,0,0,0,0,0,0,0,0,0,0,0,0,0,0,0,0,0,0,0,0,0,0,0,0,0,0,0,0,0,0,0,0,0,0,0,0,0,0,0,0,0,0,0,0,0,0,0,0,0,0,0,0,0,0,0,0,0,0,0,0,0,0,0,0,0,0,0,0,0,0,0,0,0,0,0,0,0,0,0,0,0,0,0,0,0,0,0,0,0,0,0,0,0,0],"sum_hessian":[1.3229E4,8.378E3,4.851E3,7.433E3,9.45E2,4.788E3,6.3E1,1.987E3,5.446E3,6.19E2,3.26E2,4.744E3,4.4E1,1.895E3,9.2E1,1.442E3,4.004E3,1.09E2,5.1E2,3.1E2,1.6E1,2.921E3,1.823E3,2E0,4.2E1,1.884E3,1.1E1,3.3E1,5.9E1,1.427E3,1.5E1,3.273E3,7.31E2,9E0,1E2,4.98E2,1.2E1,1.84E2,1.26E2,2.845E3,7.6E1,1.814E3,9E0,1.745E3,1.39E2,9E0,2E0,1.5E1,1.8E1,1.033E3,3.94E2,2.951E3,3.22E2,7.29E2,2E0,6E0,4.92E2,2.82E3,2.5E1,3.1E1,4.5E1,1.81E3,4E0,2E0,7E0,1.695E3,5E1,1.02E2,3.7E1,8.98E2,1.35E2,3.88E2,6E0,2.934E3,1.7E1,1.46E2,1.76E2,6.88E2,4.1E1,1.66E2,3.26E2,2.781E3,3.9E1,1.808E3,2E0,1E0,3E0,6E0,1E0,1.683E3,1.2E1,5.5E1,4.7E1,2E0,3.5E1,8.67E2,3.1E1,1.32E2,3E0,3.73E2,1.5E1,2.844E3,9E1,8.7E1,5.9E1,1.57E2,1.9E1,2.07E2,4.81E2,3.7E1,4E0,2.76E3,2.1E1,1.798E3,1E1,1.625E3,5.8E1,5.2E1,3E0,7E0,4E1,3.4E1,1E0,8.61E2,6E0,1.8E1,1.3E1,4.5E1,8.7E1,3.34E2,3.9E1,1.4E1,1E0,2.681E3,1.63E2,5.1E1,8E0,1E0,1.56E2,1.8E1,1E0,2.05E2,2E0,4.23E2,5.8E1,2.436E3,3.24E2,1.757E3,4.1E1,1.291E3,3.34E2,3.7E1,2.1E1,4.9E1,3E0,3.2E1,2E0,8.58E2,3E0,2E0,1.6E1,1.8E1,2.7E1,3.28E2,6E0,2.6E1,1.3E1,2.629E3,5.2E1,5.3E1,1.1E2,5E0,4.6E1,1.98E2,7E0,4.12E2,1.1E1,5.7E1,1E0,2.418E3,1.8E1,2.01E2,1.23E2,1.446E3,3.11E2,4E1,1E0],"tree_param":{"num_deleted":"0","num_feature":"237","num_nodes":"187","size_leaf_vector":"0"}},{"base_weights":[2.233903E6,1.7396955E6,3.0868975E6,1.9169749E6,3.4473316E5,3.0060055E6,9.091657E6,1.3955059E6,2.1069442E6,3.100813E5,4.093797E5,2.9410412E6,9.789324E6,4.4219785E6,9.248821E6,1.4472022E6,3.2655894E5,2.5626678E6,1.9422212E6,2.5040428E5,3.223208E5,4.1714222E5,2.4329014E5,3.3263052E6,2.3222462E6,4.068482E6,9.960794E6,1.430733E6,3.9136568E6,2.0959577E5,3.8739544E5,2.521049E6,6.1169735E6,1.8363934E6,2.4129018E6,1.4781548E5,2.5808233E5,3.2488753E5,1.9900444E5,3.8166116E5,4.6554262E5,3.2372722E6,6.573859E6,2.2829688E6,9.21889E6,1.37561E6,2.1079768E6,4.3226815E6,1.2456886E6,1.6143425E5,2.3912148E5,3.169108E5,4.2264503E5,2.3822752E6,3.0840198E6,1.7595349E6,2.5331422E6,2.3849065E6,8.420741E6,1.5464455E5,3.2664578E5,5.1066888E5,4.2150172E5,3.1981665E6,7.3557395E6,5.490241E6,7.18477E6,2.2557388E6,1.1689044E7,8.88533E5,1.1190413E7,1.3394161E6,2.5522608E6,1.9418726E6,2.5027335E6,3.250641E5,6.469259E4,2.2793942E6,3.0478295E6,3.3783535E6,2.0212505E6,1.7400445E6,4.8398075E6,2.9215755E6,2.1962338E6,2.4459398E6,1.3268866E6,3.023812E5,3.3803884E5,3.5821556E5,4.7797484E5,3.1536895E6,6.211574E6,2.238971E6,1.1614815E7,1.4665622E6,1.3878024E7,1.1830566E7,3.3546695E6,1.3235786E6,3.2879365E6,2.207396E6,1.5916396E6,8.4462325E5,2.571389E6,2.3214555E6,9.7652394E5,3.0919875E6,1.1400138E6,3.561479E6,1.6788834E6,2.131368E6,3.176141E5,1.7098158E6,3.2363328E6,3.2679852E6,2.3648152E6,2.092056E6,2.9094265E6,2.0382869E6,2.616782E6,1.3402154E6,3.9020378E5,2.950097E5,3.4679738E5,2.7337638E5,3.9277947E5,3.248273E6,1.9797996E6,5.3419125E6,7.606878E6,2.2149858E6,5.958077E6,1.3552944E6,7.329691E5,2.257274E6,9.9466375E5,1.9135936E6,1.4027882E6,2.6048895E6,6.9943725E5,2.2789978E6,3.7167818E6,1.4505902E6,3.1093838E5,2.1834292E6,3.1494192E6,2.964137E6,4.0350572E6,2.385296E6,1.0543828E6,2.3388368E6,8.8088694E5,8.751322E4,6.190088E5,1.6973424E6,5.498863E6,2.5152755E6,1.232733E6,2.9752868E6,8.290407E5,1.9815029E6,5.2580265E6,2.7120432E6,1.887839E6,1.3844505E6,7.448317E5,2.3499767E5,3.1799166E5,3.3012645E6,1.2169639E6,1.6766412E6,2.2110085E6,2.1903808E6,5.4268625E6,1.3790716E6,5.59253E5,5.7995925E5,1.0755326E6,2.3054365E6,1.0909216E6,2.6624518E6,1.1034071E6,2.256637E6,4.9433595E6,6.288233E5,3.811364E6,3.7631972E5,1.5548386E6,3.544379E5,-1.4902769E5,4.130319E6,3.0387898E6,2.6744035E6,6.0174895E6,5.895511E6,3.687863E6,2.5113088E6,6.2559125E5,1.5472065E6,3.4052938E5,2.5086352E6,6.755422E5,1.20088125E4,1.08678414E5,1.6837E6,4.8073305E6,1.1653599E6,2.6340885E6,2.0272702E6,5.953488E5,2.737855E6,7.8328375E5,1.1661114E6,1.9625695E6,3.2824328E6,9.557913E6,3.443188E5,1.2669045E6,1.7606422E6,1.1112594E6,1.9841112E6,2.480764E6,2.2300575E6,4.8880925E5,5.705621E6,1.0408787E6],"categories":[],"categories_nodes":[],"categories_segments":[],"categories_sizes":[],"default_left":[1,1,1,1,1,1,1,1,1,1,1,1,1,0,0,1,1,1,1,1,1,1,0,1,1,0,0,1,1,1,1,1,0,1,1,0,0,1,0,0,1,1,1,1,1,1,1,0,0,0,0,1,0,1,1,1,1,1,0,0,1,0,1,1,0,0,0,1,1,0,1,1,0,1,1,0,0,1,1,1,1,1,0,1,1,1,1,0,1,1,0,1,1,1,0,0,0,0,0,1,0,1,1,0,1,1,1,1,0,1,1,1,1,1,0,0,1,0,1,1,1,1,0,1,0,0,0,1,1,0,0,1,0,1,1,1,0,0,0,1,0,1,1,1,1,0,1,1,1,1,1,1,0,1,0,1,0,1,0,0,0,1,0,1,1,0,0,0,0,1,1,1,1,1,1,0,0,0,0,0,0,0,0,0,0,0,0,0,0,0,0,0,0,0,0,0,0,0,0,0,0,0,0,0,0,0,0,0,0,0,0,0,0,0,0,0,0,0,0,0,0,0,0,0,0,0,0],"id":2,"left_children":[1,3,5,7,9,11,13,15,17,19,21,23,25,-1,-1,27,29,31,33,35,37,39,-1,41,43,-1,-1,45,47,49,51,53,-1,55,57,-1,-1,59,-1,-1,61,63,65,67,69,71,73,-1,-1,-1,-1,75,-1,77,79,81,83,85,-1,-1,87,-1,89,91,-1,-1,-1,93,95,-1,97,99,-1,101,103,-1,-1,105,107,109,111,113,-1,115,117,119,121,-1,123,125,-1,127,129,131,-1,-1,-1,-1,-1,133,-1,135,137,-1,139,141,143,145,-1,147,149,151,153,155,-1,-1,157,-1,159,161,163,165,-1,167,-1,-1,-1,169,171,-1,-1,173,-1,175,177,179,-1,-1,-1,181,-1,183,185,187,189,-1,191,193,195,197,199,201,-1,203,-1,205,-1,207,-1,-1,-1,209,-1,211,213,-1,-1,-1,-1,215,217,219,221,223,225,-1,-1,-1,-1,-1,-1,-1,-1,-1,-1,-1,-1,-1,-1,-1,-1,-1,-1,-1,-1,-1,-1,-1,-1,-1,-1,-1,-1,-1,-1,-1,-1,-1,-1,-1,-1,-1,-1,-1,-1,-1,-1,-1,-1,-1,-1,-1,-1,-1,-1,-1,-1],"loss_changes":[5.571818E15,2.0714477E15,2.32947E15,7.334945E14,1.9922105E12,2.081586E15,6.07201E12,1.0938611E14,4.039202E14,3.72148E11,3.201051E11,1.12348184E15,3.6171678E12,0E0,0E0,7.141725E13,5.8055564E11,1.9803557E14,1.9506131E14,4.8497164E10,9.7085555E10,3.564026E11,0E0,8.2358575E14,4.7304448E14,0E0,0E0,6.7470983E13,7.710473E12,9.745727E9,1.5132E10,1.0421631E14,0E0,1.708699E14,1.0303251E14,0E0,0E0,9.884716E10,0E0,0E0,3.7151048E10,4.3483967E14,1.1527692E13,4.3850113E14,1.542918E14,7.093917E13,4.3199318E12,0E0,0E0,0E0,0E0,2.832466E10,0E0,7.179628E13,8.0445274E13,1.6880403E14,3.585358E13,4.389376E13,0E0,0E0,3.4074526E10,0E0,7.895882E10,3.5850307E14,0E0,0E0,0E0,2.5819733E14,9.1531055E13,0E0,4.4103945E11,4.798579E13,0E0,6.065098E12,2.1539932E12,0E0,0E0,5.2533356E13,9.196196E12,6.1554666E13,1.114185E13,1.2721854E14,0E0,2.062309E13,7.0642146E12,4.2651173E13,1.4008975E9,0E0,2.0929577E10,1.121452E9,0E0,3.024559E14,7.902337E12,1.48171E14,0E0,0E0,0E0,0E0,0E0,3.055037E13,0E0,1.1421425E12,2.3410088E11,0E0,4.3565397E11,4.887619E13,9.961497E12,7.9376364E11,0E0,4.3202808E13,7.631557E12,1.3246468E13,2.9258455E11,1.2673482E14,0E0,0E0,7.1193445E12,0E0,2.7366995E11,2.7609795E13,2.8350005E13,4.862876E10,0E0,1.0783031E10,0E0,0E0,0E0,2.7294302E14,1.1012497E13,0E0,0E0,1.30285685E14,0E0,2.9456765E13,3.9888125E12,4.6217875E11,0E0,0E0,0E0,8.724152E10,0E0,4.496616E13,5.4891024E12,1.5427153E12,3.5294583E11,0E0,2.2072105E12,6.3526056E13,4.67275E13,6.463968E11,4.398385E12,1.2426565E13,0E0,5.0871624E9,0E0,1.13715165E14,0E0,5.2704953E12,0E0,0E0,0E0,1.1861894E13,0E0,1.8963891E13,8.935881E11,0E0,0E0,0E0,0E0,2.640095E14,2.483674E12,2.5552707E12,2.177884E12,1.1955525E14,9.955298E12,0E0,0E0,0E0,0E0,0E0,0E0,0E0,0E0,0E0,0E0,0E0,0E0,0E0,0E0,0E0,0E0,0E0,0E0,0E0,0E0,0E0,0E0,0E0,0E0,0E0,0E0,0E0,0E0,0E0,0E0,0E0,0E0,0E0,0E0,0E0,0E0,0E0,0E0,0E0,0E0,0E0,0E0,0E0,0E0,0E0,0E0,0E0,0E0,0E0,0E0,0E0,0E0],"parents":[2147483647,0,0,1,1,2,2,3,3,4,4,5,5,6,6,7,7,8,8,9,9,10,10,11,11,12,12,15,15,16,16,17,17,18,18,19,19,20,20,21,21,23,23,24,24,27,27,28,28,29,29,30,30,31,31,33,33,34,34,37,37,40,40,41,41,42,42,43,43,44,44,45,45,46,46,51,51,53,53,54,54,55,55,56,56,57,57,60,60,62,62,63,63,67,67,68,68,70,70,71,71,73,73,74,74,77,77,78,78,79,79,80,80,81,81,83,83,84,84,85,85,86,86,88,88,89,89,91,91,92,92,93,93,99,99,101,101,102,102,104,104,105,105,106,106,107,107,109,109,110,110,111,111,112,112,113,113,116,116,118,118,119,119,120,120,121,121,123,123,127,127,128,128,131,131,133,133,134,134,135,135,139,139,141,141,142,142,143,143,144,144,146,146,147,147,148,148,149,149,150,150,151,151,153,153,155,155,157,157,161,161,163,163,164,164,169,169,170,170,171,171,172,172,173,173,174,174],"right_children":[2,4,6,8,10,12,14,16,18,20,22,24,26,-1,-1,28,30,32,34,36,38,40,-1,42,44,-1,-1,46,48,50,52,54,-1,56,58,-1,-1,60,-1,-1,62,64,66,68,70,72,74,-1,-1,-1,-1,76,-1,78,80,82,84,86,-1,-1,88,-1,90,92,-1,-1,-1,94,96,-1,98,100,-1,102,104,-1,-1,106,108,110,112,114,-1,116,118,120,122,-1,124,126,-1,128,130,132,-1,-1,-1,-1,-1,134,-1,136,138,-1,140,142,144,146,-1,148,150,152,154,156,-1,-1,158,-1,160,162,164,166,-1,168,-1,-1,-1,170,172,-1,-1,174,-1,176,178,180,-1,-1,-1,182,-1,184,186,188,190,-1,192,194,196,198,200,202,-1,204,-1,206,-1,208,-1,-1,-1,210,-1,212,214,-1,-1,-1,-1,216,218,220,222,224,226,-1,-1,-1,-1,-1,-1,-1,-1,-1,-1,-1,-1,-1,-1,-1,-1,-1,-1,-1,-1,-1,-1,-1,-1,-1,-1,-1,-1,-1,-1,-1,-1,-1,-1,-1,-1,-1,-1,-1,-1,-1,-1,-1,-1,-1,-1,-1,-1,-1,-1,-1,-1],"split_conditions":[2.5E0,5E-1,5E-1,1.5E0,2.5E0,5E-1,1.59E2,5E-1,2.5E0,9.25E1,5E-1,5E-1,1.805E2,4.4219784E5,9.248821E5,5E-1,9.5E1,5E-1,1.975E2,1.5E0,5E-1,1.5E0,2.4329014E4,5E-1,5E-1,4.0684822E5,9.9607944E5,5E-1,1.5E0,7.75E1,1.19E2,1.405E2,6.116974E5,5E-1,5E-1,1.4781549E4,2.5808232E4,1.5E0,1.9900443E4,3.8166117E4,3.5E0,5E-1,2.095E2,5E-1,5E-1,5E-1,5E-1,4.3226816E5,1.2456887E5,1.6143425E4,2.3912148E4,1.165E2,4.2264504E4,5E-1,1.675E2,5E-1,5E-1,5E-1,8.420741E5,1.5464455E4,1.125E2,5.1066887E4,2.35E2,5E-1,7.3557394E5,5.490241E5,7.18477E5,5E-1,2.315E2,8.8853305E4,3.455E2,5E-1,2.5522608E5,5E-1,5.9E1,3.250641E4,6.4692593E3,5E-1,5E-1,5E-1,5E-1,5E-1,4.8398075E5,1.645E2,5E-1,5E-1,5E-1,3.023812E4,5E-1,5E-1,4.7797484E4,5E-1,7.5E0,5E-1,1.1614815E6,1.4665623E5,1.3878024E6,1.1830566E6,3.3546697E5,5E-1,3.2879366E5,5E-1,5E-1,8.446233E4,2.5E0,5E-1,1.115E2,8.65E1,1.14001375E5,1.525E2,5E-1,5E-1,9E0,5E-1,3.2363328E5,3.2679853E5,1.89E2,2.0920561E5,7.5E0,5E-1,5E-1,5E-1,3.902038E4,1.275E2,3.467974E4,2.7337639E4,3.927795E4,5E-1,5E-1,5.3419125E5,7.606878E5,5E-1,5.958077E5,5E-1,1.225E2,1.425E2,9.9466375E4,1.9135936E5,1.4027883E5,3.5E0,6.994373E4,5E-1,5E-1,5E-1,1.345E2,2.1834292E5,1.5E0,5E-1,1.545E2,1.6E2,5E-1,2.35E2,8.8088695E4,5E-1,6.1900883E4,5E-1,5.498863E5,1.655E2,1.23273305E5,2.975287E5,8.290407E4,5E-1,5.258027E5,5E-1,2.03E2,1.3844505E5,7.448317E4,2.3499768E4,3.1799166E4,5E-1,1.825E2,2.65E2,2.425E2,5E-1,1.7E2,1.3790717E5,5.59253E4,5.7995926E4,1.07553266E5,2.3054366E5,1.09092164E5,2.662452E5,1.1034071E5,2.256637E5,4.9433597E5,6.2882332E4,3.811364E5,3.7631973E4,1.5548386E5,3.5443793E4,-1.4902769E4,4.130319E5,3.0387897E5,2.6744034E5,6.0174894E5,5.895511E5,3.687863E5,2.5113088E5,6.2559125E4,1.5472066E5,3.4052938E4,2.5086353E5,6.755422E4,1.2008812E3,1.0867842E4,1.6837E5,4.8073306E5,1.1653599E5,2.6340884E5,2.0272703E5,5.9534883E4,2.737855E5,7.8328375E4,1.1661114E5,1.9625695E5,3.2824328E5,9.557913E5,3.4431883E4,1.2669045E5,1.7606423E5,1.1112594E5,1.9841112E5,2.480764E5,2.2300575E5,4.8880926E4,5.705621E5,1.0408787E5],"split_indices":[1,150,136,1,0,215,2,19,0,2,236,235,2,0,0,18,2,215,2,0,236,1,0,67,123,0,0,185,0,2,2,2,0,185,227,0,0,0,0,0,3,120,2,18,9,174,10,0,0,0,0,2,0,185,2,75,234,91,0,0,2,0,2,191,0,0,0,227,2,0,2,167,0,234,2,0,0,199,8,152,14,148,0,2,10,234,11,0,3,4,0,14,3,60,0,0,0,0,0,132,0,8,3,0,0,159,2,2,0,2,3,37,3,221,0,0,2,0,3,212,14,8,0,2,0,0,0,91,234,0,0,221,0,91,2,2,0,0,0,3,0,48,12,3,2,0,0,225,2,2,10,2,0,234,0,225,0,2,0,0,0,94,0,94,2,0,0,0,0,60,2,2,2,199,2,0,0,0,0,0,0,0,0,0,0,0,0,0,0,0,0,0,0,0,0,0,0,0,0,0,0,0,0,0,0,0,0,0,0,0,0,0,0,0,0,0,0,0,0,0,0,0,0,0,0,0,0],"split_type":[0,0,0,0,0,0,0,0,0,0,0,0,0,0,0,0,0,0,0,0,0,0,0,0,0,0,0,0,0,0,0,0,0,0,0,0,0,0,0,0,0,0,0,0,0,0,0,0,0,0,0,0,0,0,0,0,0,0,0,0,0,0,0,0,0,0,0,0,0,0,0,0,0,0,0,0,0,0,0,0,0,0,0,0,0,0,0,0,0,0,0,0,0,0,0,0,0,0,0,0,0,0,0,0,0,0,0,0,0,0,0,0,0,0,0,0,0,0,0,0,0,0,0,0,0,0,0,0,0,0,0,0,0,0,0,0,0,0,0,0,0,0,0,0,0,0,0,0,0,0,0,0,0,0,0,0,0,0,0,0,0,0,0,0,0,0,0,0,0,0,0,0,0,0,0,0,0,0,0,0,0,0,0,0,0,0,0,0,0,0,0,0,0,0,0,0,0,0,0,0,0,0,0,0,0,0,0,0,0,0,0,0,0,0,0,0,0,0,0,0,0,0,0,0,0,0,0],"sum_hessian":[1.3229E4,8.378E3,4.851E3,7.433E3,9.45E2,4.788E3,6.3E1,1.987E3,5.446E3,6.19E2,3.26E2,4.744E3,4.4E1,3E0,6E1,1.895E3,9.2E1,1.442E3,4.004E3,1.09E2,5.1E2,3.1E2,1.6E1,2.921E3,1.823E3,2E0,4.2E1,1.884E3,1.1E1,3.3E1,5.9E1,1.427E3,1.5E1,3.273E3,7.31E2,9E0,1E2,4.98E2,1.2E1,1.84E2,1.26E2,2.845E3,7.6E1,1.814E3,9E0,1.745E3,1.39E2,9E0,2E0,1.5E1,1.8E1,2.3E1,3.6E1,1.149E3,2.78E2,2.951E3,3.22E2,7.29E2,2E0,6E0,4.92E2,5.7E1,6.9E1,2.82E3,2.5E1,3.1E1,4.5E1,1.81E3,4E0,2E0,7E0,1.695E3,5E1,1.02E2,3.7E1,2.2E1,1E0,9.99E2,1.5E2,2.16E2,6.2E1,2.934E3,1.7E1,1.46E2,1.76E2,6.88E2,4.1E1,1.66E2,3.26E2,3.6E1,3.3E1,2.781E3,3.9E1,1.808E3,2E0,1E0,3E0,6E0,1E0,1.683E3,1.2E1,5.5E1,4.7E1,2E0,3.5E1,9.67E2,3.2E1,1.46E2,4E0,1.94E2,2.2E1,5.8E1,4E0,2.878E3,5.6E1,8.7E1,5.9E1,1.57E2,1.9E1,2.07E2,4.81E2,4E1,1E0,6.1E1,2.65E2,1.3E1,2.3E1,2.572E3,2.09E2,2.7E1,1.2E1,1.798E3,1E1,1.596E3,8.7E1,5.2E1,3E0,1.4E1,3.3E1,3.4E1,1E0,9.41E2,2.6E1,1.8E1,1.4E1,1.1E1,1.35E2,8.9E1,1.05E2,9E0,1.3E1,4.9E1,9E0,3E0,1E0,2.87E3,8E0,5.1E1,8E0,1.8E1,1E0,2.05E2,2E0,4.23E2,5.8E1,3.6E1,4E0,2E1,4.1E1,2.506E3,6.6E1,9.4E1,1.15E2,1.786E3,1.2E1,1.549E3,4.7E1,6.2E1,2.5E1,4.9E1,3E0,3.2E1,2E0,9.35E2,6E0,1E0,2.5E1,2E0,1.6E1,1.3E1,1E0,1E1,1.25E2,8.3E1,6E0,1.4E1,9.1E1,8E0,1E0,7E0,6E0,4.4E1,5E0,1E0,2E0,2.859E3,1.1E1,5E0,4.6E1,1.98E2,7E0,4.17E2,6E0,7E0,5.1E1,2.5E3,6E0,4E0,6.2E1,8E1,1.4E1,6.7E1,4.8E1,1.745E3,4.1E1,1.1E1,1E0],"tree_param":{"num_deleted":"0","num_feature":"237","num_nodes":"227","size_leaf_vector":"0"}},{"base_weights":[2.0127244E6,1.5675364E6,2.781112E6,1.7272609E6,3.107082E5,2.708062E6,8.2038515E6,1.2574258E6,1.8984204E6,2.7938956E5,3.691389E5,2.6493232E6,8.841567E6,4.0903305E6,8.3391015E6,1.3039599E6,2.952073E5,2.3104545E6,1.7494906E6,2.2573286E5,2.903932E5,3.3879644E5,4.0926106E5,2.995549E6,2.0932262E6,7.0826855E6,9.751833E6,1.2888508E6,3.5686942E6,1.898143E5,3.5000988E5,2.2726118E6,5.543507E6,1.6538006E6,2.175091E6,1.3451208E5,2.3252964E5,2.926707E5,1.806348E5,3.4370134E5,1.8302092E5,4.2029138E5,2.2825008E5,2.915024E6,5.932934E6,2.0570069E6,8.457739E6,1.2385892E6,1.9064771E6,3.9336402E6,1.1626426E6,1.4629978E5,2.1646788E5,4.7745034E5,3.2416962E5,2.2517922E6,6.1773125E6,1.5842611E6,2.2842232E6,2.1487515E6,7.8593575E6,1.413893E5,2.9422503E5,4.6048244E5,3.8098603E5,2.7970095E6,4.0215405E6,4.958374E6,6.481912E6,2.0316578E6,1.0827031E7,8.292975E5,1.0261187E7,1.2058802E6,2.3020392E6,1.7551682E6,2.2664335E6,2.8781878E5,4.2438347E5,2.2236632E6,4.7420335E6,1.5665589E6,4.382714E6,2.6350645E6,1.9799415E6,2.2034548E6,1.2001968E6,2.9034316E5,3.7151444E5,3.241944E5,4.315832E5,2.7655755E6,6.319054E6,3.2006752E6,5.097871E6,2.0159264E6,1.0840493E7,1.3932341E6,1.2837172E7,1.1914342E6,2.9844348E6,1.9944974E6,1.4393849E6,7.88315E5,2.3266535E6,2.4778689E5,3.501835E5,4.9051488E5,2.3369655E5,2.127346E6,2.8607938E6,2.3278122E6,5.151604E6,1.6016038E6,4.5370703E5,2.880462E6,1.995146E6,1.8841744E6,2.6375055E6,1.8382469E6,2.3564835E6,2.7340255E6,6.1185825E6,2.3165022E6,3.6042252E6,1.1021137E7,4.8972775E6,2.0636692E6,5.6484706E5,1.1752294E6,2.418741E6,1.846382E6,3.46492E6,2.0379546E6,9.20064E5,9.1328894E5,1.5069308E6,2.35516E6,6.644654E5,2.0379078E6,2.7239128E6,3.4318902E6,1.80505E6,1.6491114E6,8.1491494E5,2.536796E6,1.5950319E6,1.4666931E6,1.937462E6,1.7846256E6,4.907491E6,2.4416695E6,1.7043579E6,2.7163032E6,8.738663E6,2.4025338E6,1.104735E5,3.7218968E6,1.02271925E6,4.981341E6,1.26471836E5,2.1924628E6,1.4626226E6,4.8121647E5,9.265153E5,1.163284E6,2.8645288E6,7.2179905E6,1.5336626E6,1.9074018E6,3.1603772E6,2.0005306E6,3.358755E6,2.7608512E6,1.0488126E6,3.6051448E6,1.6154844E6,1.8972591E6,3.0064662E5,1.6863325E6,5.195122E5,7.086077E5,9.969831E5,2.9609065E6,9.267495E5,1.5056145E6,3.2467212E5,5.2263447E5,1.9440222E6,1.8267661E6,5.1330175E5,2.4774012E6,1.0084282E6,1.7231229E6,3.079963E5,2.6879972E6,6.3097405E6,2.4557342E6,-1.02144875E5,5.828551E5,-4.1714488E5,3.8069025E6,7.087827E5,5.114371E6,1.7787554E6,2.3547582E6,1.5293729E6,1.3009635E6,1.9151719E6,5.8478694E5,1.0451098E5,1.0819194E6,4.2292944E5],"categories":[],"categories_nodes":[],"categories_segments":[],"categories_sizes":[],"default_left":[1,1,1,1,1,1,1,1,1,1,1,1,1,0,0,1,1,1,1,1,1,1,1,1,1,0,0,1,1,1,1,1,0,1,1,0,0,1,0,0,0,1,0,1,1,1,1,1,1,0,0,0,0,0,1,1,0,1,1,1,0,0,1,0,1,1,1,0,0,1,1,0,0,1,0,1,1,1,1,1,1,1,0,1,1,1,0,0,0,0,0,1,0,1,1,1,0,0,0,1,1,1,1,0,1,0,0,0,0,1,1,0,0,1,0,0,1,1,0,1,1,1,0,1,1,0,1,1,1,1,1,0,0,1,0,0,0,0,0,1,1,1,1,1,1,1,0,1,1,1,0,1,1,1,0,1,1,1,0,1,0,1,1,1,1,0,0,0,0,0,0,0,0,0,0,0,0,0,0,0,0,0,0,0,0,0,0,0,0,0,0,0,0,0,0,0,0,0,0,0,0,0,0,0,0,0,0,0,0,0,0,0,0],"id":3,"left_children":[1,3,5,7,9,11,13,15,17,19,21,23,25,-1,-1,27,29,31,33,35,37,39,41,43,45,-1,-1,47,49,51,53,55,-1,57,59,-1,-1,61,-1,-1,-1,63,-1,65,67,69,71,73,75,-1,-1,-1,-1,-1,77,79,-1,81,83,85,-1,-1,87,-1,89,91,93,-1,-1,95,97,-1,-1,99,-1,101,103,105,107,109,111,113,-1,115,117,119,-1,-1,-1,-1,-1,121,-1,123,125,127,-1,-1,-1,129,131,133,135,-1,137,-1,-1,-1,-1,139,141,-1,-1,143,-1,-1,145,147,-1,149,151,153,-1,155,157,-1,159,161,163,165,167,-1,-1,169,-1,-1,-1,-1,-1,171,173,175,177,179,181,183,-1,185,187,189,-1,191,193,195,-1,197,199,201,-1,203,-1,205,207,209,211,-1,-1,-1,-1,-1,-1,-1,-1,-1,-1,-1,-1,-1,-1,-1,-1,-1,-1,-1,-1,-1,-1,-1,-1,-1,-1,-1,-1,-1,-1,-1,-1,-1,-1,-1,-1,-1,-1,-1,-1,-1,-1,-1,-1,-1,-1,-1,-1],"loss_changes":[4.5213164E15,1.6815162E15,1.89981E15,5.9543064E14,1.6280191E12,1.7019302E15,1.4970645E12,8.86296E13,3.3020782E14,3.005093E11,2.5943029E11,9.0731184E14,2.978023E12,0E0,0E0,6.0278255E13,4.7071416E11,1.6394803E14,1.5950972E14,3.6922982E10,7.486833E10,8.37959E10,1.7560712E11,6.738546E14,4.0306926E14,0E0,0E0,5.615455E13,5.9635453E12,7.764443E9,4.2810212E10,1.0217888E14,0E0,1.3991124E14,9.270821E13,0E0,0E0,7.573655E10,0E0,0E0,0E0,2.5186796E10,0E0,3.6039715E14,9.056207E12,3.8149886E14,1.29065445E14,5.7957362E13,3.6470312E12,0E0,0E0,0E0,0E0,0E0,7.0926205E10,8.906313E13,0E0,1.3937437E14,2.926443E13,3.52343E13,0E0,0E0,4.0047215E10,0E0,6.12274E10,2.6760438E14,2.2400133E14,0E0,0E0,2.2910698E14,7.693105E13,0E0,0E0,4.001997E13,0E0,4.9135097E12,1.5483357E12,1.8085577E10,3.6693213E10,8.031804E13,2.8399465E12,1.1373771E14,0E0,1.7337172E13,6.1767E12,3.4174518E13,0E0,0E0,0E0,0E0,0E0,2.5345246E14,0E0,4.7669708E13,8.385414E13,1.2415945E14,0E0,0E0,0E0,3.0649155E13,7.1106036E11,7.3970745E11,3.294458E11,0E0,1.4087828E11,0E0,0E0,0E0,0E0,5.9916404E13,1.0353891E14,0E0,0E0,1.0498403E14,0E0,0E0,5.4894883E12,6.733032E11,0E0,2.547392E13,2.2614613E13,2.4570864E14,0E0,9.603564E12,2.8393223E13,0E0,4.508991E13,1.3234029E14,1.3386897E12,3.0245965E13,7.8132E13,0E0,0E0,1.7382873E12,0E0,0E0,0E0,0E0,0E0,4.615506E13,6.8187975E12,3.0995974E13,8.585086E12,1.1188927E14,2.4677775E12,8.864225E12,0E0,4.8904746E11,2.5558411E11,1.0098609E13,0E0,1.9215684E13,1.0152397E12,2.3997486E14,0E0,6.913354E12,9.908467E11,2.3170946E13,0E0,3.8619004E13,0E0,1.5136646E14,2.0333919E13,1.8896619E12,3.2501662E11,0E0,0E0,0E0,0E0,0E0,0E0,0E0,0E0,0E0,0E0,0E0,0E0,0E0,0E0,0E0,0E0,0E0,0E0,0E0,0E0,0E0,0E0,0E0,0E0,0E0,0E0,0E0,0E0,0E0,0E0,0E0,0E0,0E0,0E0,0E0,0E0,0E0,0E0,0E0,0E0,0E0,0E0,0E0,0E0,0E0,0E0,0E0,0E0],"parents":[2147483647,0,0,1,1,2,2,3,3,4,4,5,5,6,6,7,7,8,8,9,9,10,10,11,11,12,12,15,15,16,16,17,17,18,18,19,19,20,20,21,21,22,22,23,23,24,24,27,27,28,28,29,29,30,30,31,31,33,33,34,34,37,37,41,41,43,43,44,44,45,45,46,46,47,47,48,48,54,54,55,55,57,57,58,58,59,59,62,62,64,64,65,65,66,66,69,69,70,70,73,73,75,75,76,76,77,77,78,78,79,79,80,80,81,81,83,83,84,84,85,85,91,91,93,93,94,94,95,95,99,99,100,100,101,101,102,102,104,104,109,109,110,110,113,113,116,116,117,117,119,119,120,120,121,121,123,123,124,124,126,126,127,127,128,128,129,129,130,130,133,133,139,139,140,140,141,141,142,142,143,143,144,144,145,145,147,147,148,148,149,149,151,151,152,152,153,153,155,155,156,156,157,157,159,159,161,161,162,162,163,163,164,164],"right_children":[2,4,6,8,10,12,14,16,18,20,22,24,26,-1,-1,28,30,32,34,36,38,40,42,44,46,-1,-1,48,50,52,54,56,-1,58,60,-1,-1,62,-1,-1,-1,64,-1,66,68,70,72,74,76,-1,-1,-1,-1,-1,78,80,-1,82,84,86,-1,-1,88,-1,90,92,94,-1,-1,96,98,-1,-1,100,-1,102,104,106,108,110,112,114,-1,116,118,120,-1,-1,-1,-1,-1,122,-1,124,126,128,-1,-1,-1,130,132,134,136,-1,138,-1,-1,-1,-1,140,142,-1,-1,144,-1,-1,146,148,-1,150,152,154,-1,156,158,-1,160,162,164,166,168,-1,-1,170,-1,-1,-1,-1,-1,172,174,176,178,180,182,184,-1,186,188,190,-1,192,194,196,-1,198,200,202,-1,204,-1,206,208,210,212,-1,-1,-1,-1,-1,-1,-1,-1,-1,-1,-1,-1,-1,-1,-1,-1,-1,-1,-1,-1,-1,-1,-1,-1,-1,-1,-1,-1,-1,-1,-1,-1,-1,-1,-1,-1,-1,-1,-1,-1,-1,-1,-1,-1,-1,-1,-1,-1],"split_conditions":[2.5E0,5E-1,5E-1,1.5E0,2.5E0,5E-1,1.59E2,5E-1,2.5E0,9.25E1,1.5E0,5E-1,2.31E2,4.0903306E5,8.339102E5,5E-1,9.5E1,5E-1,1.975E2,1.5E0,5E-1,5E-1,5E-1,5E-1,5E-1,7.0826856E5,9.751833E5,5E-1,1.5E0,7.75E1,5E-1,5E-1,5.543507E5,5E-1,5E-1,1.3451208E4,2.3252965E4,1.5E0,1.806348E4,3.4370137E4,1.8302092E4,3.5E0,2.2825008E4,1.05E1,2.095E2,5E-1,5E-1,5E-1,5E-1,3.9336403E5,1.16264266E5,1.4629979E4,2.1646787E4,4.7745035E4,6.5E0,5E-1,6.1773125E5,5E-1,5E-1,5E-1,7.8593575E5,1.413893E4,2.35E2,4.6048246E4,2.35E2,5E-1,2.605E2,4.958374E5,6.481912E5,5E-1,2.315E2,8.292975E4,1.0261187E6,5E-1,2.3020392E5,5E-1,5.9E1,1.225E2,1.225E2,1.505E2,1.04E2,5E-1,4.382714E5,1.695E2,5E-1,5E-1,1.2001968E5,2.9034316E4,3.7151445E4,3.2419441E4,4.315832E4,5E-1,6.3190544E5,5E-1,2.625E2,5E-1,1.0840494E6,1.3932342E5,1.2837172E6,5E-1,7.5E1,5E-1,7.65E1,7.88315E4,2.5E0,2.477869E4,3.501835E4,4.905149E4,2.3369654E4,5E-1,1.665E2,2.3278123E5,5.151604E5,5E-1,4.5370703E4,2.8804622E5,5E-1,5E-1,2.6375056E5,5E-1,5E-1,5E-1,6.1185825E5,5E-1,5E-1,1.1021138E6,5E-1,5E-1,5E-1,5E-1,5E-1,1.846382E5,3.46492E5,4.5E0,9.20064E4,9.13289E4,1.5069308E5,2.35516E5,6.644654E4,5E-1,5E-1,5E-1,5E-1,5E-1,1.675E2,5E-1,1.5950319E5,2.5E0,1.085E2,5E-1,4.907491E5,5E-1,4E2,5E-1,8.738663E5,5E-1,2.5E0,5E-1,1.0227193E5,5E-1,1.2647184E4,5E-1,2.13E2,5E-1,5E-1,1.163284E5,2.8645288E5,7.2179906E5,1.5336627E5,1.9074017E5,3.1603772E5,2.0005306E5,3.358755E5,2.7608512E5,1.04881266E5,3.6051447E5,1.6154844E5,1.8972592E5,3.0064662E4,1.6863325E5,5.195122E4,7.086077E4,9.969831E4,2.9609066E5,9.267495E4,1.5056145E5,3.2467213E4,5.226345E4,1.9440223E5,1.8267661E5,5.1330176E4,2.4774012E5,1.0084282E5,1.723123E5,3.079963E4,2.6879972E5,6.3097406E5,2.4557342E5,-1.0214487E4,5.828551E4,-4.171449E4,3.8069025E5,7.087827E4,5.114371E5,1.7787555E5,2.3547583E5,1.529373E5,1.3009635E5,1.9151719E5,5.8478695E4,1.0451098E4,1.0819194E5,4.2292945E4],"split_indices":[1,150,136,1,0,215,2,19,0,2,1,235,2,0,0,18,2,215,2,0,236,236,236,67,123,0,0,185,0,2,12,136,0,185,227,0,0,0,0,0,0,3,0,3,2,18,9,174,10,0,0,0,0,0,3,225,0,75,234,91,0,0,2,0,2,201,2,0,0,227,2,0,0,167,0,234,2,2,2,2,2,36,0,2,10,234,0,0,0,0,0,147,0,6,2,89,0,0,0,123,2,8,2,0,0,0,0,0,0,185,2,0,0,91,0,0,11,9,0,212,14,60,0,123,91,0,132,14,5,221,12,0,0,3,0,0,0,0,0,159,8,152,14,89,2,8,0,3,2,37,0,161,2,154,0,132,0,199,0,151,0,152,2,10,11,0,0,0,0,0,0,0,0,0,0,0,0,0,0,0,0,0,0,0,0,0,0,0,0,0,0,0,0,0,0,0,0,0,0,0,0,0,0,0,0,0,0,0,0,0,0,0,0],"split_type":[0,0,0,0,0,0,0,0,0,0,0,0,0,0,0,0,0,0,0,0,0,0,0,0,0,0,0,0,0,0,0,0,0,0,0,0,0,0,0,0,0,0,0,0,0,0,0,0,0,0,0,0,0,0,0,0,0,0,0,0,0,0,0,0,0,0,0,0,0,0,0,0,0,0,0,0,0,0,0,0,0,0,0,0,0,0,0,0,0,0,0,0,0,0,0,0,0,0,0,0,0,0,0,0,0,0,0,0,0,0,0,0,0,0,0,0,0,0,0,0,0,0,0,0,0,0,0,0,0,0,0,0,0,0,0,0,0,0,0,0,0,0,0,0,0,0,0,0,0,0,0,0,0,0,0,0,0,0,0,0,0,0,0,0,0,0,0,0,0,0,0,0,0,0,0,0,0,0,0,0,0,0,0,0,0,0,0,0,0,0,0,0,0,0,0,0,0,0,0,0,0,0,0,0,0,0,0,0,0,0,0,0,0],"sum_hessian":[1.3229E4,8.378E3,4.851E3,7.433E3,9.45E2,4.788E3,6.3E1,1.987E3,5.446E3,6.19E2,3.26E2,4.744E3,4.4E1,3E0,6E1,1.895E3,9.2E1,1.442E3,4.004E3,1.09E2,5.1E2,1.91E2,1.35E2,2.921E3,1.823E3,1.8E1,2.6E1,1.884E3,1.1E1,3.3E1,5.9E1,1.427E3,1.5E1,3.273E3,7.31E2,9E0,1E2,4.98E2,1.2E1,1.84E2,7E0,1.26E2,9E0,2.845E3,7.6E1,1.814E3,9E0,1.745E3,1.39E2,9E0,2E0,1.5E1,1.8E1,7E0,5.2E1,1.421E3,6E0,2.951E3,3.22E2,7.29E2,2E0,6E0,4.92E2,5.7E1,6.9E1,2.574E3,2.71E2,3.1E1,4.5E1,1.81E3,4E0,2E0,7E0,1.695E3,5E1,1.02E2,3.7E1,4.1E1,1.1E1,1.407E3,1.4E1,2.934E3,1.7E1,1.46E2,1.76E2,6.88E2,4.1E1,4.73E2,1.9E1,3.6E1,3.3E1,2.553E3,2.1E1,1.56E2,1.15E2,1.808E3,2E0,1E0,3E0,1.683E3,1.2E1,5.5E1,4.7E1,2E0,3.5E1,2.8E1,1.3E1,7E0,4E0,1.226E3,1.81E2,3E0,1.1E1,2.844E3,9E1,1.03E2,4.3E1,1.57E2,1.9E1,2.07E2,4.81E2,2.531E3,2.2E1,5.1E1,1.05E2,2E0,1.13E2,1.75E3,5.8E1,1.663E3,2E1,5E0,7E0,5.2E1,3E0,7E0,4E1,3.4E1,1E0,1.07E3,1.56E2,1.16E2,6.5E1,2.681E3,1.63E2,1.6E1,2.7E1,2.1E1,1.36E2,2.05E2,2E0,4.23E2,5.8E1,2.525E3,6E0,4.9E1,2E0,1E2,5E0,1.11E2,2E0,1.439E3,3.11E2,4.9E1,9E0,1.653E3,1E1,2E0,1.8E1,4.9E1,3E0,1.043E3,2.7E1,1.52E2,4E0,1.05E2,1.1E1,6.1E1,4E0,2.595E3,8.6E1,1.06E2,5.7E1,1.2E1,4E0,2E1,1E0,1E0,1.35E2,1.98E2,7E0,4.12E2,1.1E1,5.7E1,1E0,2.507E3,1.8E1,4.8E1,1E0,1E0,1E0,9.7E1,3E0,1.06E2,5E0,1.154E3,2.85E2,2.32E2,7.9E1,3.8E1,1.1E1,6E0,3E0],"tree_param":{"num_deleted":"0","num_feature":"237","num_nodes":"213","size_leaf_vector":"0"}},{"base_weights":[1.8134722E6,1.4122728E6,2.5059365E6,1.5561696E6,2.7998856E5,2.4399705E6,7.4028875E6,1.1336885E6,1.7100775E6,2.5166852E5,3.3282784E5,2.386776E6,7.99482E6,1.1755525E6,2.6801172E5,2.0818891E6,1.5756869E6,2.0349325E5,2.6154642E5,3.0519112E5,3.693971E5,2.6983115E6,1.8863958E6,3.3250708E6,8.1346905E6,1.1616955E6,3.254294E6,1.7189983E5,3.1800828E5,2.0474686E6,5.0238035E6,1.489155E6,1.9605634E6,1.3507628E5,2.1126998E5,2.635646E5,1.6396083E5,3.09517E5,1.670066E5,3.792199E5,2.0770758E5,2.6254988E6,5.3544985E6,1.8531996E6,7.7228695E6,1.1158982E6,1.7245551E6,3.5796128E6,1.0851331E6,1.3258417E5,1.9596039E5,2.867282E5,4.0030512E5,2.0283054E6,5.6478285E6,1.4261315E6,2.060537E6,1.9357892E6,7.3354005E6,1.292702E5,2.6493678E5,4.1522812E5,3.439671E5,2.5906465E6,6.306006E6,4.4780315E6,5.847812E6,1.8296039E6,1.0028936E7,7.74011E5,9.363333E6,1.0863589E6,2.076349E6,1.5878145E6,2.0498111E6,2.563551E5,4.905912E5,4.5292678E5,2.150008E5,2.109256E6,1.3008362E6,1.4100518E6,3.9687915E6,2.3772472E6,1.7858651E6,1.9849619E6,1.0830346E6,2.5951847E5,3.108315E5,2.926512E5,3.8969422E5,2.5508865E6,5.2911865E6,1.8148475E6,1.0117794E7,1.3235725E6,1.1874384E7,9.936987E6,2.6738765E6,1.0730496E6,2.7268472E6,1.8057402E6,1.3004885E6,7.357607E5,2.1023762E6,1.4698311E5,2.7011856E5,2.1889842E6,1.2679059E6,1.524866E6,7.855358E5,1.3989615E6,4.860179E6,1.6776224E6,4.1503362E6,2.6601272E6,1.9227356E6,1.6984765E6,2.3869422E6,2.0133799E6,4.709918E5,7.2037144E5,1.1471798E6,2.2394717E5,2.6393806E5,1.1824674E5,3.1676312E5,2.1788766E5,3.2406944E5,1.09993984E5,3.948368E5,2.766893E6,2.0901026E6,4.5675995E6,6.4426665E6,1.7931258E6,5.2023645E6,1.0189806E6,1.3910189E6,1.6925168E6,3.1617395E6,1.843721E6,8.510591E5,1.5943448E6,1.1325964E6,2.1490305E6,8.72836E5,1.7446361E5,-8.949961E3,2.2331742E6,6.5203444E5,2.7508394E5,1.7672679E6,1.26331E6,2.093053E6,4.328695E4,1.179959E6,1.3715974E6,2.7527025E6,2.6178205E6,1.6747798E6,1.3283432E6,1.7455162E6,2.4435485E6,6.557134E5,2.0951329E6,1.443313E6,4.8765047E5,1.2721459E5,1.8494692E5,2.4943297E5,2.4612092E5,2.750402E5,2.8325332E6,8.4880744E5,2.0421182E6,5.1774985E6,1.7833342E6,9.699138E6,9.330071E5,1.3165795E6,1.1047651E6,1.5255592E6,1.7204764E6,2.923349E6,2.1758955E6,6.312421E5,1.9293588E5,4.1051156E4,2.2092828E6,4.971506E6,1.1261712E6,4.824484E4,3.3220023E4,1.0776059E6,1.8759614E6,7.617429E5,-3.6903506E5,1.2919011E6,1.471525E6,2.3754362E6,8.5860825E5,-3.6798094E5,1.7623119E6,6.309649E5,1.1653721E6,1.5424669E6,2.7437095E6,4.9063272E5,8.5265894E5,1.8215568E6,1.3622226E6,3.0843853E5,1.7783961E6,1.20722E6,1.5332035E6,2.745769E6,2.1342465E6,9.355753E5,1.4531764E6,2.925965E5,2.357221E5,3.0712662E5,2.8726032E6,3.352601E5,1.017335E5,8.969168E5,2.008843E6,6.554415E6,1.7609696E6,4.71871E6],"categories":[],"categories_nodes":[],"categories_segments":[],"categories_sizes":[],"default_left":[1,1,1,1,1,1,0,1,1,1,1,1,1,1,1,1,1,1,1,1,1,1,1,0,0,1,1,1,1,1,0,1,1,0,0,1,0,0,0,1,0,1,1,1,1,1,1,0,0,0,0,1,1,1,0,1,1,1,0,0,1,0,1,1,0,0,0,1,1,0,1,1,0,1,1,1,0,0,0,1,1,1,1,1,1,1,1,1,1,1,1,1,1,1,0,0,0,0,0,1,1,1,1,0,1,1,0,1,1,1,1,1,0,0,0,0,1,1,1,1,1,0,0,1,1,0,0,0,0,0,0,1,1,0,0,1,0,1,1,0,0,1,0,0,0,1,0,1,0,1,1,1,1,1,1,1,1,1,0,1,1,1,1,1,0,1,1,0,0,0,0,1,0,1,1,1,0,1,0,0,0,0,0,0,0,0,0,0,0,0,0,0,0,0,0,0,0,0,0,0,0,0,0,0,0,0,0,0,0,0,0,0,0,0,0,0,0,0,0,0,0,0,0,0,0,0,0,0,0,0,0],"id":4,"left_children":[1,3,5,7,9,11,-1,13,15,17,19,21,23,25,27,29,31,33,35,37,39,41,43,-1,-1,45,47,49,51,53,-1,55,57,-1,-1,59,-1,-1,-1,61,-1,63,65,67,69,71,73,-1,-1,-1,-1,75,77,79,-1,81,83,85,-1,-1,87,-1,89,91,-1,-1,-1,93,95,-1,97,99,-1,101,103,105,-1,-1,-1,107,109,111,113,115,117,119,121,123,125,127,129,131,133,135,-1,-1,-1,-1,-1,137,139,141,143,-1,145,147,-1,149,151,153,155,157,-1,-1,-1,-1,159,161,163,165,167,-1,-1,169,171,-1,-1,-1,-1,-1,-1,173,175,-1,-1,177,-1,179,181,-1,-1,183,-1,-1,-1,185,-1,187,-1,189,191,193,195,197,199,201,203,205,-1,207,209,211,213,215,-1,217,219,-1,-1,-1,-1,221,-1,223,225,227,-1,229,-1,-1,-1,-1,-1,-1,-1,-1,-1,-1,-1,-1,-1,-1,-1,-1,-1,-1,-1,-1,-1,-1,-1,-1,-1,-1,-1,-1,-1,-1,-1,-1,-1,-1,-1,-1,-1,-1,-1,-1,-1,-1,-1,-1,-1,-1,-1,-1,-1,-1,-1,-1,-1],"loss_changes":[3.6719737E15,1.364772E15,1.5492849E15,4.8144436E14,1.3318509E12,1.3960083E15,0E0,7.173186E13,2.6889502E14,2.4181421E11,2.177473E11,7.345897E14,2.34371E12,5.083389E13,3.9222352E11,1.3583532E14,1.3046285E14,2.9989274E10,5.7424216E10,6.3078138E10,1.3723553E11,5.5107007E14,3.3908606E14,0E0,0E0,4.6665893E13,4.583661E12,6.1813555E9,3.9676543E10,8.706811E13,0E0,1.1496017E14,8.327083E13,0E0,0E0,5.7705234E10,0E0,0E0,0E0,1.8387829E10,0E0,3.4873202E14,7.1060234E12,3.317873E14,1.0674618E14,4.728061E13,2.971916E12,0E0,0E0,0E0,0E0,1.6525584E11,3.913443E10,8.099664E13,0E0,1.1509761E14,2.3852772E13,2.846087E13,0E0,0E0,4.1930457E10,0E0,5.0212635E10,2.894035E14,0E0,0E0,0E0,2.0312887E14,6.4609864E13,0E0,4.1291413E12,3.410365E13,0E0,4.101073E12,1.0779361E12,2.5026888E10,0E0,0E0,0E0,8.2951925E13,1.5541339E13,1.0550211E14,5.2438866E11,1.3785369E13,5.2431484E12,2.8695213E13,1.506552E11,1.1165237E10,1.6233529E10,1.6299852E10,5.476188E9,2.7111337E14,3.900233E12,1.23783105E14,0E0,0E0,0E0,0E0,0E0,2.7534498E13,4.9639588E11,4.61407E11,5.6238906E11,0E0,1.8933088E11,3.1557288E10,0E0,7.773622E13,5.5536695E13,1.2217102E13,1.341589E13,1.0465171E14,0E0,0E0,0E0,0E0,5.9567505E12,4.3228175E11,3.5769025E11,2.8481002E13,1.813984E10,0E0,0E0,9.529459E9,9.850323E9,0E0,0E0,0E0,0E0,0E0,0E0,2.3568096E14,1.2157361E14,0E0,0E0,1.2196687E14,0E0,3.569158E13,7.634707E12,0E0,0E0,2.0225437E12,0E0,0E0,0E0,1.283457E10,0E0,6.866338E9,0E0,6.314139E13,9.679149E12,7.534146E12,6.76808E12,3.790359E12,1.769753E12,6.016314E12,8.479293E12,9.936997E13,0E0,2.4029E12,4.118253E12,3.4001964E11,2.7786425E11,1.0175549E12,0E0,2.4717E13,5.73613E11,0E0,0E0,0E0,0E0,2.9105324E10,0E0,1.8195522E14,2.208993E12,1.18963615E14,0E0,1.0972675E14,0E0,0E0,0E0,0E0,0E0,0E0,0E0,0E0,0E0,0E0,0E0,0E0,0E0,0E0,0E0,0E0,0E0,0E0,0E0,0E0,0E0,0E0,0E0,0E0,0E0,0E0,0E0,0E0,0E0,0E0,0E0,0E0,0E0,0E0,0E0,0E0,0E0,0E0,0E0,0E0,0E0,0E0,0E0,0E0,0E0,0E0,0E0,0E0,0E0,0E0,0E0,0E0,0E0],"parents":[2147483647,0,0,1,1,2,2,3,3,4,4,5,5,7,7,8,8,9,9,10,10,11,11,12,12,13,13,14,14,15,15,16,16,17,17,18,18,19,19,20,20,21,21,22,22,25,25,26,26,27,27,28,28,29,29,31,31,32,32,35,35,39,39,41,41,42,42,43,43,44,44,45,45,46,46,51,51,52,52,53,53,55,55,56,56,57,57,60,60,62,62,63,63,67,67,68,68,70,70,71,71,73,73,74,74,75,75,79,79,80,80,81,81,82,82,83,83,84,84,85,85,86,86,87,87,88,88,89,89,90,90,91,91,92,92,93,93,99,99,100,100,101,101,102,102,104,104,105,105,107,107,108,108,109,109,110,110,111,111,116,116,117,117,118,118,119,119,120,120,123,123,124,124,131,131,132,132,135,135,137,137,138,138,141,141,145,145,147,147,149,149,150,150,151,151,152,152,153,153,154,154,155,155,156,156,157,157,159,159,160,160,161,161,162,162,163,163,165,165,166,166,171,171,173,173,174,174,175,175,177,177],"right_children":[2,4,6,8,10,12,-1,14,16,18,20,22,24,26,28,30,32,34,36,38,40,42,44,-1,-1,46,48,50,52,54,-1,56,58,-1,-1,60,-1,-1,-1,62,-1,64,66,68,70,72,74,-1,-1,-1,-1,76,78,80,-1,82,84,86,-1,-1,88,-1,90,92,-1,-1,-1,94,96,-1,98,100,-1,102,104,106,-1,-1,-1,108,110,112,114,116,118,120,122,124,126,128,130,132,134,136,-1,-1,-1,-1,-1,138,140,142,144,-1,146,148,-1,150,152,154,156,158,-1,-1,-1,-1,160,162,164,166,168,-1,-1,170,172,-1,-1,-1,-1,-1,-1,174,176,-1,-1,178,-1,180,182,-1,-1,184,-1,-1,-1,186,-1,188,-1,190,192,194,196,198,200,202,204,206,-1,208,210,212,214,216,-1,218,220,-1,-1,-1,-1,222,-1,224,226,228,-1,230,-1,-1,-1,-1,-1,-1,-1,-1,-1,-1,-1,-1,-1,-1,-1,-1,-1,-1,-1,-1,-1,-1,-1,-1,-1,-1,-1,-1,-1,-1,-1,-1,-1,-1,-1,-1,-1,-1,-1,-1,-1,-1,-1,-1,-1,-1,-1,-1,-1,-1,-1,-1,-1],"split_conditions":[2.5E0,5E-1,5E-1,1.5E0,2.5E0,5E-1,7.4028875E5,5E-1,2.5E0,9.25E1,1.5E0,5E-1,1.805E2,5E-1,9.5E1,5E-1,1.975E2,7.25E1,5E-1,5E-1,5E-1,5E-1,5E-1,3.325071E5,8.1346906E5,5E-1,1.5E0,7.75E1,6.5E0,5E-1,5.0238034E5,5E-1,5E-1,1.3507628E4,2.1126998E4,1.5E0,1.6396084E4,3.0951701E4,1.670066E4,3.5E0,2.0770758E4,5E-1,2.095E2,5E-1,5E-1,5E-1,5E-1,3.5796128E5,1.0851331E5,1.3258417E4,1.959604E4,1.425E2,1.225E2,5E-1,5.647829E5,5E-1,5E-1,5E-1,7.3354006E5,1.29270205E4,1.5E0,4.1522812E4,2.35E2,5E-1,6.306006E5,4.4780316E5,5.847812E5,5E-1,2.315E2,7.74011E4,3.455E2,5E-1,2.076349E5,5E-1,5.9E1,5E-1,4.905912E4,4.529268E4,2.150008E4,5E-1,5E-1,5E-1,5E-1,1.645E2,5E-1,5E-1,5E-1,5E-1,1.15E2,5E-1,5E-1,5E-1,7.5E0,5E-1,1.01177944E6,1.3235725E5,1.1874384E6,9.936987E5,2.6738766E5,1.405E2,7.5E1,5E-1,5E-1,7.357607E4,3.5E0,5E0,2.7011857E4,5E-1,5E-1,5E-1,1.14E2,5E-1,4.860179E5,1.6776223E5,4.1503362E5,2.6601272E5,5E-1,5E-1,7.5E0,5E-1,2.8E2,7.203715E4,1.1471798E5,1.275E2,1.125E2,1.1824675E4,3.1676312E4,2.1788766E4,3.2406943E4,1.0999398E4,3.9483684E4,5E-1,5E-1,4.5675997E5,6.442667E5,5E-1,5.2023647E5,5E-1,2.5E0,1.6925167E5,3.1617397E5,4.5E0,8.5105914E4,1.5943448E5,1.1325964E5,2.5E0,8.72836E4,1.3E2,-8.949961E2,5E-1,1.115E2,1.085E2,5E-1,7.65E1,1.5E0,9.05E1,1.34E2,5E-1,2.7527025E5,5E-1,1.675E2,2.5E0,4.5E0,1.5E0,6.5571336E4,5E-1,4.4E2,4.8765047E4,1.272146E4,1.8494693E4,2.4943297E4,4.5E0,2.750402E4,5E-1,1.825E2,5E-1,5.1774984E5,5E-1,9.699138E5,9.330071E4,1.3165795E5,1.10476516E5,1.5255592E5,1.7204764E5,2.923349E5,2.1758955E5,6.3124215E4,1.9293588E4,4.1051157E3,2.2092828E5,4.971506E5,1.12617125E5,4.824484E3,3.3220024E3,1.07760586E5,1.8759614E5,7.617429E4,-3.6903508E4,1.2919012E5,1.471525E5,2.3754362E5,8.586083E4,-3.6798094E4,1.7623119E5,6.309649E4,1.1653721E5,1.5424669E5,2.7437097E5,4.9063273E4,8.52659E4,1.8215567E5,1.3622227E5,3.0843854E4,1.7783961E5,1.20722E5,1.5332036E5,2.745769E5,2.1342466E5,9.355753E4,1.4531764E5,2.925965E4,2.3572209E4,3.0712662E4,2.8726034E5,3.352601E4,1.0173351E4,8.969168E4,2.008843E5,6.554415E5,1.7609697E5,4.71871E5],"split_indices":[1,150,136,1,0,215,0,19,0,2,1,235,2,18,2,215,2,2,236,236,236,67,123,0,0,185,0,2,3,136,0,185,227,0,0,0,0,0,0,3,0,120,2,18,9,174,10,0,0,0,0,2,2,152,0,75,234,91,0,0,1,0,2,191,0,0,0,227,2,0,2,167,0,234,2,9,0,0,0,127,10,221,9,2,10,94,9,3,2,4,9,11,3,60,0,0,0,0,0,2,2,8,3,0,3,3,0,199,234,236,2,148,0,0,0,0,3,9,3,14,2,0,0,2,2,0,0,0,0,0,0,91,147,0,0,212,0,235,3,0,0,3,0,0,0,0,0,2,0,60,2,2,10,2,3,2,2,9,0,8,2,3,3,3,0,161,2,0,0,0,0,3,0,127,2,119,0,221,0,0,0,0,0,0,0,0,0,0,0,0,0,0,0,0,0,0,0,0,0,0,0,0,0,0,0,0,0,0,0,0,0,0,0,0,0,0,0,0,0,0,0,0,0,0,0,0,0,0,0,0,0],"split_type":[0,0,0,0,0,0,0,0,0,0,0,0,0,0,0,0,0,0,0,0,0,0,0,0,0,0,0,0,0,0,0,0,0,0,0,0,0,0,0,0,0,0,0,0,0,0,0,0,0,0,0,0,0,0,0,0,0,0,0,0,0,0,0,0,0,0,0,0,0,0,0,0,0,0,0,0,0,0,0,0,0,0,0,0,0,0,0,0,0,0,0,0,0,0,0,0,0,0,0,0,0,0,0,0,0,0,0,0,0,0,0,0,0,0,0,0,0,0,0,0,0,0,0,0,0,0,0,0,0,0,0,0,0,0,0,0,0,0,0,0,0,0,0,0,0,0,0,0,0,0,0,0,0,0,0,0,0,0,0,0,0,0,0,0,0,0,0,0,0,0,0,0,0,0,0,0,0,0,0,0,0,0,0,0,0,0,0,0,0,0,0,0,0,0,0,0,0,0,0,0,0,0,0,0,0,0,0,0,0,0,0,0,0,0,0,0,0,0,0,0,0,0,0,0,0,0,0,0,0,0,0],"sum_hessian":[1.3229E4,8.378E3,4.851E3,7.433E3,9.45E2,4.788E3,6.3E1,1.987E3,5.446E3,6.19E2,3.26E2,4.744E3,4.4E1,1.895E3,9.2E1,1.442E3,4.004E3,1.09E2,5.1E2,1.91E2,1.35E2,2.921E3,1.823E3,2E0,4.2E1,1.884E3,1.1E1,3.3E1,5.9E1,1.427E3,1.5E1,3.273E3,7.31E2,1.3E1,9.6E1,4.98E2,1.2E1,1.84E2,7E0,1.26E2,9E0,2.845E3,7.6E1,1.814E3,9E0,1.745E3,1.39E2,9E0,2E0,1.5E1,1.8E1,4.6E1,1.3E1,1.421E3,6E0,2.951E3,3.22E2,7.29E2,2E0,6E0,4.92E2,5.7E1,6.9E1,2.82E3,2.5E1,3.1E1,4.5E1,1.81E3,4E0,2E0,7E0,1.695E3,5E1,1.02E2,3.7E1,4.2E1,4E0,9E0,4E0,1.277E3,1.44E2,2.934E3,1.7E1,1.46E2,1.76E2,6.88E2,4.1E1,4.46E2,4.6E1,3.6E1,3.3E1,2.781E3,3.9E1,1.808E3,2E0,1E0,3E0,6E0,1E0,1.683E3,1.2E1,5.5E1,4.7E1,2E0,3.5E1,6E0,3.6E1,1.165E3,1.12E2,9.9E1,4.5E1,2.926E3,8E0,2E0,1.5E1,8.7E1,5.9E1,1.57E2,1.9E1,6.75E2,1.3E1,8E0,3.3E1,5.5E1,3.91E2,2E0,4.4E1,1.3E1,2.3E1,1E0,3.2E1,1.89E3,8.91E2,2.7E1,1.2E1,1.798E3,1E1,1.442E3,2.41E2,5E0,7E0,5.2E1,3E0,1.4E1,3.3E1,3.3E1,2E0,5E0,1E0,1.132E3,3.3E1,3.8E1,7.4E1,7E1,2.9E1,1.6E1,2.9E1,2.87E3,5.6E1,1.3E1,4.6E1,2.1E1,1.36E2,1.8E1,1E0,5.88E2,8.7E1,1.2E1,1E0,2.5E1,3E1,1.59E2,2.32E2,1.827E3,6.3E1,8.79E2,1.2E1,1.797E3,1E0,1.122E3,3.2E2,8E1,1.61E2,4.9E1,3E0,3.2E1,1E0,4E0,1E0,1.124E3,8E0,1.8E1,1.5E1,3E1,8E0,6.6E1,8E0,1E0,6.9E1,1.1E1,1.8E1,5E0,1.1E1,1.3E1,1.6E1,1.304E3,1.566E3,1.2E1,1E0,8E0,3.8E1,2E1,1E0,1.26E2,1E1,6E0,1.2E1,5.68E2,2E1,8.6E1,1E0,1.4E2,1.9E1,1.798E3,2.9E1,4E0,5.9E1,8.74E2,5E0,1.785E3,1.2E1],"tree_param":{"num_deleted":"0","num_feature":"237","num_nodes":"231","size_leaf_vector":"0"}},{"base_weights":[1.63392E6,1.2724172E6,2.2578682E6,1.4020386E6,2.5246255E5,2.1983775E6,6.6741655E6,1.0218838E6,1.5405269E6,2.2687697E5,3.0020138E5,2.1502832E6,7.2208045E6,3.2283392E6,6.790709E6,1.0595329E6,2.4334197E5,1.8758089E6,1.4193402E6,1.8345878E5,2.3577936E5,2.749202E5,3.3368512E5,2.4300405E6,1.7009406E6,5.691667E6,8.029427E6,1.046823E6,2.9677372E6,1.5567616E5,2.8896356E5,1.8445008E6,4.5528215E6,1.4456619E6,2.840996E5,1.2253348E5,1.903608E5,2.3233866E5,3.0863144E5,2.787326E5,1.5239352E5,3.4244912E5,1.890139E5,2.364188E6,4.832459E6,1.6703424E6,7.0844315E6,6.828761E6,3.6694778E6,1.00498494E6,1.5611265E6,3.2574475E6,1.012791E6,5.7332027E4,1.6003103E5,4.0195606E5,2.6645597E5,1.8191475E6,4.111493E6,1.4880535E6,6.714242E5,2.9192075E5,-2.13814E5,2.3411642E5,1.4882597E5,3.7442122E5,3.110658E5,2.3326082E6,5.699659E6,4.298296E6,5.613733E6,1.6483829E6,9.290002E6,7.2241025E5,8.584636E6,9.7829694E5,1.8727854E6,1.4370155E6,1.8564504E6,1.6266112E5,3.924902E4,2.0464216E5,4.7941594E5,2.3498697E5,3.543928E5,1.8012276E6,5.163729E6,1.9875301E6,4.476856E6,1.5102671E6,-4.385913E4,4.9511953E5,8.551936E5,2.6750166E5,3.398956E5,1.1818989E5,2.353345E5,2.648508E5,3.5220956E5,2.4167015E6,1.2755399E6,1.6345448E6,9.443275E6,1.2573938E6,1.0983805E7,9.085246E6,2.5401828E6,9.660345E5,2.491503E6,1.6349785E6,1.1761208E6,6.8671E5,1.9023606E6,1.9980911E5,2.9107056E5,3.7095116E5,8.612547E4,1.7824016E6,4.5295945E6,1.5400706E6,3.38639E5,-8.244602E4,1.1447564E5,2.279619E5,5.2964175E5,-8.662144E4,8.656879E5,2.735997E5,1.3960558E5,2.1951297E5,2.4314898E5,1.9765523E5,2.930128E5,2.2806448E6,3.133542E6,1.0298199E6,1.46578E6,1.6252561E6,9.214181E6,9.90181E5,2.8419938E5,1.5514738E6,2.8850872E6,1.6719009E6,7.370116E5,1.4455391E6,1.02266794E6,1.1368013E5,3.111623E5,1.7021282E6,2.3204552E6,1.6088051E6,9.5611744E5,6.85529E5,2.8797522E5,-1.2433555E5,1.5673223E5,6.3684113E4,1.4618789E5,6.0818094E4,2.361408E5,5.187646E3,5.409865E5,7.9673325E5,1.0676796E6,2.1013294E5,2.7794956E5,2.1417925E5,2.4943633E5,2.2356338E6,4.595241E6,2.6632342E6,4.1753932E6,9.5801925E5,1.9351924E6,1.2695752E6,1.7081501E6,2.8646012E6,1.5759162E6,1.02042125E6,4.500679E5,2.2287566E5,7.8874625E5,1.4452049E6,2.1498508E6,5.9863994E5,1.0751334E6,1.6765425E6,3.7900635E6,1.923366E6,2.519535E6,1.7080285E6,1.0325908E6,8.4244656E5,1.3157628E6,3.5048212E5,1.1842405E6,5.492369E5,2.5626764E5,-1.2903708E5,2.4810469E4,8.760105E5,-1.0914922E5,3.61675E3,1.8201047E5,2.2468062E5,5.0771375E4,5.5818094E4,-4.8036625E4,5.634059E5,3.008069E5,8.141168E5,3.8358647E5,1.7510673E5,2.223593E5,1.6735122E5,2.3249377E5,2.5439781E5,2.0336736E5,2.2166078E6,7.768091E6,1.30919E6,4.6446625E6,2.5594065E6,5.0451295E6,3.9035048E6,7.731798E6,6.62753E5,1.0553471E6,6.7489206E5,1.31624E6,1.884449E6,1.3833495E6,1.3356241E6,3.136235E6,1.6129522E6,3.931865E4],"categories":[],"categories_nodes":[],"categories_segments":[],"categories_sizes":[],"default_left":[1,1,1,1,1,1,1,1,1,1,1,1,1,0,0,1,1,1,1,1,1,1,1,1,1,1,0,1,1,1,1,1,0,1,1,0,0,1,0,0,0,1,0,1,1,1,1,0,0,1,1,0,0,0,1,1,1,1,1,1,1,1,0,1,0,0,1,1,0,0,0,1,1,0,1,1,0,1,1,0,0,0,0,1,1,1,0,0,0,1,1,1,1,1,0,0,1,1,0,1,1,1,0,0,0,0,0,1,1,1,1,0,0,0,1,0,0,1,0,1,1,1,1,1,1,0,1,0,0,1,1,0,0,1,1,1,1,1,0,1,1,0,0,1,0,0,1,0,0,1,1,1,1,1,1,1,1,1,1,0,0,1,1,1,0,1,0,1,1,1,1,1,1,1,0,1,1,1,1,0,0,0,0,0,0,0,0,0,0,0,0,0,0,0,0,0,0,0,0,0,0,0,0,0,0,0,0,0,0,0,0,0,0,0,0,0,0,0,0,0,0,0,0,0,0,0,0,0,0,0,0,0,0,0,0,0,0],"id":5,"left_children":[1,3,5,7,9,11,13,15,17,19,21,23,25,-1,-1,27,29,31,33,35,37,39,41,43,45,47,-1,49,51,53,55,57,-1,59,61,-1,-1,63,-1,-1,-1,65,-1,67,69,71,73,-1,-1,75,77,-1,-1,-1,79,81,83,85,87,89,91,93,-1,95,-1,-1,97,99,-1,-1,-1,101,103,-1,105,107,-1,109,111,-1,-1,-1,-1,113,115,117,-1,-1,-1,119,121,123,125,127,-1,-1,129,131,-1,133,135,137,-1,-1,-1,-1,-1,139,141,143,145,-1,-1,-1,147,-1,-1,149,-1,151,153,155,157,159,161,-1,163,-1,-1,165,167,-1,-1,169,171,173,175,177,-1,179,181,-1,-1,183,-1,-1,185,-1,-1,187,189,191,193,195,197,199,201,203,205,-1,-1,207,209,211,-1,213,-1,215,217,219,221,223,225,227,-1,229,231,233,235,-1,-1,-1,-1,-1,-1,-1,-1,-1,-1,-1,-1,-1,-1,-1,-1,-1,-1,-1,-1,-1,-1,-1,-1,-1,-1,-1,-1,-1,-1,-1,-1,-1,-1,-1,-1,-1,-1,-1,-1,-1,-1,-1,-1,-1,-1,-1,-1,-1,-1,-1,-1,-1,-1,-1,-1,-1,-1],"loss_changes":[2.981272E15,1.1074165E15,1.2600854E15,3.8980264E14,1.0873607E12,1.1412566E15,3.7790343E12,5.8013197E13,2.1865786E14,1.963899E11,1.8507366E11,5.9234686E14,9.941507E12,0E0,0E0,4.2876793E13,3.2696382E11,1.1254371E14,1.1926426E14,2.293026E10,5.638193E10,4.7210037E10,1.0770658E11,4.5085023E14,2.886261E14,1.8631031E13,0E0,3.8991592E13,3.4972946E12,5.3864694E9,4.5488275E10,7.4596066E13,0E0,1.27463355E14,4.2068974E11,0E0,0E0,3.8199624E10,0E0,0E0,0E0,1.0960765E10,0E0,2.8648398E14,8.0047453E12,2.8837914E14,8.924167E13,0E0,0E0,3.860491E13,2.463667E12,0E0,0E0,0E0,3.7810995E9,2.4162599E10,6.3388254E10,7.544593E13,2.7424037E12,1.2631445E14,6.21845E12,1.5684076E10,0E0,3.9967523E10,0E0,0E0,3.981915E10,2.4768217E14,0E0,0E0,0E0,1.7991027E14,5.4217285E13,0E0,1.1291066E12,2.9063507E13,0E0,3.3967655E12,7.3434713E11,0E0,0E0,0E0,0E0,2.470314E10,2.1356478E10,6.424734E13,0E0,0E0,0E0,1.2717559E14,3.3935897E11,8.661091E11,1.05346656E12,1.2497977E10,0E0,0E0,5.230297E9,1.2101878E10,0E0,2.4760486E14,8.307138E12,1.1238587E14,0E0,0E0,0E0,0E0,0E0,2.7443901E13,3.3361494E11,6.2446476E11,5.0615602E11,0E0,0E0,0E0,1.4524219E10,0E0,0E0,5.651828E13,0E0,1.4159326E14,1.4194626E12,4.6032614E11,8.4080067E9,4.77705E9,5.564772E11,0E0,5.1431395E11,0E0,0E0,3.3132904E10,2.675966E9,0E0,0E0,2.1882322E14,1.9173593E14,4.3216347E12,3.3476753E12,1.0604328E14,0E0,2.6098503E13,1.6497089E12,0E0,0E0,2.6355496E12,0E0,0E0,1.1277645E11,0E0,0E0,5.8926683E13,9.304376E12,1.8056365E14,1.434462E13,1.4229538E12,5.38535E11,2.984752E10,1.4343151E12,4.198703E10,3.3529668E10,0E0,0E0,1.0765618E10,3.259121E11,2.4072788E11,0E0,2.4443355E10,0E0,1.426509E10,4.7217377E9,2.1003893E14,5.778073E11,5.831183E13,9.26211E13,1.8869586E12,0E0,9.987225E11,1.9897778E11,2.4053058E13,9.901618E13,0E0,0E0,0E0,0E0,0E0,0E0,0E0,0E0,0E0,0E0,0E0,0E0,0E0,0E0,0E0,0E0,0E0,0E0,0E0,0E0,0E0,0E0,0E0,0E0,0E0,0E0,0E0,0E0,0E0,0E0,0E0,0E0,0E0,0E0,0E0,0E0,0E0,0E0,0E0,0E0,0E0,0E0,0E0,0E0,0E0,0E0,0E0,0E0,0E0,0E0,0E0,0E0,0E0,0E0,0E0,0E0,0E0,0E0],"parents":[2147483647,0,0,1,1,2,2,3,3,4,4,5,5,6,6,7,7,8,8,9,9,10,10,11,11,12,12,15,15,16,16,17,17,18,18,19,19,20,20,21,21,22,22,23,23,24,24,25,25,27,27,28,28,29,29,30,30,31,31,33,33,34,34,37,37,41,41,43,43,44,44,45,45,46,46,49,49,50,50,54,54,55,55,56,56,57,57,58,58,59,59,60,60,61,61,63,63,66,66,67,67,71,71,72,72,74,74,75,75,77,77,78,78,83,83,84,84,85,85,89,89,90,90,91,91,92,92,93,93,96,96,97,97,99,99,100,100,101,101,107,107,108,108,109,109,110,110,114,114,117,117,119,119,120,120,121,121,122,122,123,123,124,124,126,126,129,129,130,130,133,133,134,134,135,135,136,136,137,137,139,139,140,140,143,143,146,146,149,149,150,150,151,151,152,152,153,153,154,154,155,155,156,156,157,157,158,158,161,161,162,162,163,163,165,165,167,167,168,168,169,169,170,170,171,171,172,172,173,173,175,175,176,176,177,177,178,178],"right_children":[2,4,6,8,10,12,14,16,18,20,22,24,26,-1,-1,28,30,32,34,36,38,40,42,44,46,48,-1,50,52,54,56,58,-1,60,62,-1,-1,64,-1,-1,-1,66,-1,68,70,72,74,-1,-1,76,78,-1,-1,-1,80,82,84,86,88,90,92,94,-1,96,-1,-1,98,100,-1,-1,-1,102,104,-1,106,108,-1,110,112,-1,-1,-1,-1,114,116,118,-1,-1,-1,120,122,124,126,128,-1,-1,130,132,-1,134,136,138,-1,-1,-1,-1,-1,140,142,144,146,-1,-1,-1,148,-1,-1,150,-1,152,154,156,158,160,162,-1,164,-1,-1,166,168,-1,-1,170,172,174,176,178,-1,180,182,-1,-1,184,-1,-1,186,-1,-1,188,190,192,194,196,198,200,202,204,206,-1,-1,208,210,212,-1,214,-1,216,218,220,222,224,226,228,-1,230,232,234,236,-1,-1,-1,-1,-1,-1,-1,-1,-1,-1,-1,-1,-1,-1,-1,-1,-1,-1,-1,-1,-1,-1,-1,-1,-1,-1,-1,-1,-1,-1,-1,-1,-1,-1,-1,-1,-1,-1,-1,-1,-1,-1,-1,-1,-1,-1,-1,-1,-1,-1,-1,-1,-1,-1,-1,-1,-1,-1],"split_conditions":[2.5E0,5E-1,5E-1,1.5E0,2.5E0,5E-1,1.59E2,5E-1,2.5E0,9.25E1,1.5E0,5E-1,2.31E2,3.2283394E5,6.7907094E5,5E-1,9.5E1,5E-1,5E-1,7.25E1,2.35E2,5E-1,5E-1,5E-1,5E-1,2.25E2,8.029427E5,5E-1,1.5E0,6.1E1,5E-1,5E-1,4.5528216E5,5E-1,2.05E2,1.2253348E4,1.903608E4,5E-1,3.0863145E4,2.787326E4,1.5239352E4,3.5E0,1.890139E4,5E-1,2.315E2,5E-1,5E-1,6.828761E5,3.6694778E5,5E-1,5E-1,3.2574475E5,1.012791E5,5.7332026E3,1.15E1,2.5E0,6.5E0,5E-1,1.04E2,5E-1,1.675E2,1.46E2,-2.13814E4,1.5E0,1.4882597E4,3.744212E4,2.35E2,5E-1,5.6996594E5,4.298296E5,5.613733E5,5E-1,2.315E2,7.224102E4,3.455E2,5E-1,1.8727855E5,5E-1,5.9E1,1.6266112E4,3.924902E3,2.0464217E4,4.7941594E4,1.225E2,2.05E2,5E-1,5.163729E5,1.9875302E5,4.476856E5,5E-1,1.6E2,1.315E2,5E-1,3.5E0,3.398956E4,1.1818989E4,1.125E2,5E-1,3.5220957E4,2.605E2,5E-1,5E-1,9.443275E5,1.25739375E5,1.0983805E6,9.085246E5,2.5401828E5,5E-1,7.5E1,1.425E2,5E-1,6.8671E4,1.9023606E5,1.9980912E4,5E-1,3.7095117E4,8.612547E3,5E-1,4.5295947E5,5E-1,1.345E2,5E-1,1.815E2,1.11E2,5E-1,-8.662144E3,2.105E2,2.7359969E4,1.3960558E4,4.5E0,5E-1,1.9765523E4,2.9301281E4,5E-1,8.5E0,3.5E0,2.425E2,2.5E0,9.214181E5,5E-1,8.5E0,1.5514738E5,2.8850872E5,5E-1,7.3701164E4,1.4455392E5,1.5E0,1.1368014E4,3.1116232E4,5E-1,1.5E0,5E-1,1.955E2,1.315E2,5E-1,7.5E0,1.4E2,2.5E0,1.91E2,6.0818096E3,2.361408E4,1.42E2,5E-1,5E-1,1.0676796E5,5E-1,2.7794957E4,1.275E2,1.6E2,5E-1,1.325E2,5E-1,5E-1,5E-1,1.9351923E5,1.565E2,3.5E0,1.245E2,5E-1,1.02042125E5,4.5006793E4,2.2287566E4,7.8874625E4,1.4452048E5,2.1498508E5,5.9863996E4,1.07513336E5,1.6765425E5,3.7900634E5,1.9233661E5,2.519535E5,1.7080286E5,1.03259086E5,8.424466E4,1.3157628E5,3.5048215E4,1.18424055E5,5.4923688E4,2.5626764E4,-1.2903708E4,2.4810469E3,8.7601055E4,-1.0914922E4,3.6167502E2,1.8201047E4,2.2468062E4,5.0771377E3,5.5818096E3,-4.8036626E3,5.634059E4,3.0080691E4,8.141168E4,3.835865E4,1.7510674E4,2.223593E4,1.6735123E4,2.3249377E4,2.5439781E4,2.0336736E4,2.2166078E5,7.768091E5,1.30919E5,4.6446625E5,2.5594066E5,5.0451297E5,3.9035047E5,7.731798E5,6.6275305E4,1.0553471E5,6.748921E4,1.31624E5,1.884449E5,1.3833495E5,1.3356242E5,3.136235E5,1.6129523E5,3.931865E3],"split_indices":[1,150,136,1,0,215,2,19,0,2,1,235,2,0,0,18,2,215,36,2,2,236,236,67,123,2,0,185,0,2,12,225,0,91,2,0,0,236,0,0,0,3,0,120,2,18,9,0,0,174,10,0,0,0,3,0,3,136,2,199,2,2,0,0,0,0,2,14,0,0,0,227,2,0,2,167,0,234,2,0,0,0,0,2,2,60,0,0,0,89,2,2,234,0,0,0,2,4,0,2,234,212,0,0,0,0,0,89,2,2,3,0,0,0,9,0,0,185,0,14,2,11,2,2,234,0,2,0,0,3,3,0,0,221,3,0,2,0,0,132,3,0,0,9,0,0,3,0,0,147,3,152,2,2,4,3,2,3,2,0,0,2,8,8,0,234,0,2,2,60,2,147,123,3,0,2,0,2,199,0,0,0,0,0,0,0,0,0,0,0,0,0,0,0,0,0,0,0,0,0,0,0,0,0,0,0,0,0,0,0,0,0,0,0,0,0,0,0,0,0,0,0,0,0,0,0,0,0,0,0,0,0,0,0,0,0,0],"split_type":[0,0,0,0,0,0,0,0,0,0,0,0,0,0,0,0,0,0,0,0,0,0,0,0,0,0,0,0,0,0,0,0,0,0,0,0,0,0,0,0,0,0,0,0,0,0,0,0,0,0,0,0,0,0,0,0,0,0,0,0,0,0,0,0,0,0,0,0,0,0,0,0,0,0,0,0,0,0,0,0,0,0,0,0,0,0,0,0,0,0,0,0,0,0,0,0,0,0,0,0,0,0,0,0,0,0,0,0,0,0,0,0,0,0,0,0,0,0,0,0,0,0,0,0,0,0,0,0,0,0,0,0,0,0,0,0,0,0,0,0,0,0,0,0,0,0,0,0,0,0,0,0,0,0,0,0,0,0,0,0,0,0,0,0,0,0,0,0,0,0,0,0,0,0,0,0,0,0,0,0,0,0,0,0,0,0,0,0,0,0,0,0,0,0,0,0,0,0,0,0,0,0,0,0,0,0,0,0,0,0,0,0,0,0,0,0,0,0,0,0,0,0,0,0,0,0,0,0,0,0,0,0,0,0,0,0,0],"sum_hessian":[1.3229E4,8.378E3,4.851E3,7.433E3,9.45E2,4.788E3,6.3E1,1.987E3,5.446E3,6.19E2,3.26E2,4.744E3,4.4E1,3E0,6E1,1.895E3,9.2E1,1.442E3,4.004E3,1.09E2,5.1E2,1.91E2,1.35E2,2.921E3,1.823E3,1.8E1,2.6E1,1.884E3,1.1E1,3.3E1,5.9E1,1.427E3,1.5E1,3.913E3,9.1E1,1.3E1,9.6E1,4.91E2,1.9E1,1.84E2,7E0,1.26E2,9E0,2.845E3,7.6E1,1.814E3,9E0,1E1,8E0,1.745E3,1.39E2,9E0,2E0,2E0,3.1E1,7E0,5.2E1,1.413E3,1.4E1,3.709E3,2.04E2,9E1,1E0,4.79E2,1.2E1,5.7E1,6.9E1,2.82E3,2.5E1,4.9E1,2.7E1,1.81E3,4E0,2E0,7E0,1.695E3,5E1,1.02E2,3.7E1,3E1,1E0,3E0,4E0,4.1E1,1.1E1,1.407E3,6E0,3E0,1.1E1,3.656E3,5.3E1,1.06E2,9.8E1,6.4E1,2.6E1,6E0,4.73E2,3.6E1,3.3E1,2.611E3,2.09E2,1.808E3,2E0,1E0,3E0,6E0,1E0,1.683E3,1.2E1,5.5E1,4.7E1,2E0,3.5E1,2.8E1,1.3E1,1E1,1E0,1.399E3,8E0,3.565E3,9.1E1,4.3E1,1E1,1.3E1,9.3E1,1E0,9.7E1,6E1,4E0,1.66E2,3.07E2,1.3E1,2.3E1,2.198E3,4.13E2,9.4E1,1.15E2,1.807E3,1E0,1.625E3,5.8E1,5E0,7E0,5.2E1,3E0,1.4E1,3.3E1,2E0,1.1E1,1.221E3,1.78E2,3.188E3,3.77E2,1E1,8.1E1,3.7E1,6E0,5E0,5E0,1E0,1.2E1,2E0,9.1E1,7.6E1,2.1E1,1.47E2,1.9E1,6.1E1,2.46E2,2.158E3,4E1,2.87E2,1.26E2,8.9E1,5E0,6.7E1,4.8E1,6.7E1,1.74E3,1.538E3,8.7E1,5.3E1,5E0,3.8E1,1.4E1,5E0,2.8E1,1.208E3,1.3E1,6.3E1,1.15E2,2.718E3,4.7E2,2.89E2,8.8E1,7E0,3E0,7E0,7.4E1,3.6E1,1E0,1E0,5E0,4E0,1E0,2E0,3E0,1E0,1E0,8.2E1,9E0,7.2E1,4E0,4.2E1,1.05E2,2E1,4.1E1,2.18E2,2.8E1,2.152E3,6E0,1E0,3.9E1,2.77E2,1E1,1.19E2,7E0,2.4E1,6.5E1,6E0,6.1E1,2.8E1,2E1,1.1E1,5.6E1,1.699E3,4.1E1],"tree_param":{"num_deleted":"0","num_feature":"237","num_nodes":"237","size_leaf_vector":"0"}},{"base_weights":[1.4721144E6,1.1460379E6,2.0349178E6,1.2627494E6,2.276665E5,1.9812042E6,6.022404E6,9.209594E5,1.3872612E6,2.0457984E5,2.7074316E5,1.9375536E6,6.5398965E6,2.9862138E6,6.1227705E6,9.54798E5,2.2118523E5,1.69035E6,1.277712E6,1.6539734E5,2.1261408E5,2.476527E5,3.013507E5,2.1890798E6,1.5335531E6,5.177754E6,7.256223E6,9.4313975E5,2.7065488E6,1.4087102E5,2.630102E5,1.5563139E6,2.2133612E6,1.2994954E6,-4.204742E4,1.3550812E5,1.786904E5,2.0947066E5,2.7931147E5,2.5100998E5,1.3905908E5,3.0916272E5,1.7200266E5,2.1295188E6,4.3620855E6,1.5132812E6,8.605825E6,6.2079645E6,3.3433018E6,9.0498994E5,1.4121856E6,2.964277E6,9.452715E5,1.06992875E5,1.6198572E5,3.703112E5,2.4185136E5,1.5771509E6,-3.9064844E5,2.1053282E6,4.2082065E6,1.1590825E6,1.4979824E6,-1.2359765E5,2.6968184E5,2.1104878E5,1.350882E5,3.376247E5,2.8116334E5,2.0328315E6,3.0833658E6,3.8770628E6,5.0724085E6,1.4849129E6,6.499467E6,1.1945241E6,1.0160019E7,2.6481488E6,6.704796E6,8.808752E5,1.689179E6,1.3005482E6,1.6776188E6,1.16373E5,4.975925E4,1.89294E5,4.410627E5,2.1297553E5,3.2276247E5,1.5957351E6,-4.7534566E5,-4.088396E5,-8.617731E4,2.3419552E6,1.2568625E6,1.1277132E6,2.226141E6,1.4874099E6,6.732505E6,-3.2112666E5,-4.445579E4,5.1743062E5,2.1082189E5,1.08059336E5,2.1212447E5,2.3969188E5,3.1802453E5,2.226984E6,1.6206145E6,3.0037678E6,8.900991E6,1.4719381E6,8.813723E6,6.7424956E5,7.8714905E6,8.661152E5,2.0169202E6,1.2412112E6,2.215311E6,1.174918E6,1.8151934E6,1.805172E5,2.649981E5,3.755055E5,1.7382117E5,1.6654424E6,9.837939E5,3.181396E5,-6.8702456E5,2.4771115E6,1.0942414E6,1.4142785E6,2.8112956E5,1.066482E6,1.7426274E6,7.791808E5,2.6446455E6,1.4742178E6,5.4720685E6,-3.0400262E5,4.354168E4,2.3044712E5,6.858871E4,1.9796611E5,2.1911253E5,1.7930152E5,2.6493244E5,8.6883805E4,3.2239594E5,2.2893882E6,5.41398E5,1.5788392E6,4.343685E6,2.8882222E6,5.879617E6,1.4630691E6,8.753472E6,8.5533844E5,2.4195585E6,6.6065625E6,1.1860861E6,1.3799916E6,1.0650072E6,2.542859E6,4.5255956E5,1.2242364E6,3.4086716E5,1.909508E6,3.927354E5,1.0610145E5,2.826391E5,1.7497775E6,9.78262E5,1.188044E6,5.2252934E5,2.0197621E6,2.8420578E6,1.7595482E6,5.408621E5,1.530848E6,-3.427115E4,3.2395512E5,-5.215025E4,1.0347396E6,2.3668625E6,2.1481415E6,1.3839416E6,1.7579936E6,2.8223588E6,1.5919421E6,1.1428545E6,-5.4248812E4,-3.2572538E5,3.1227203E5,2.1171204E3,1.893882E5,2.5154438E5,2.1942566E5,6.149183E4,2.25835E6,5.216573E6,8.1728336E4,6.056056E5,1.5524304E6,4.9073115E6,2.4879022E6,3.6780492E6,1.4436776E6,4.499702E6,8.4450344E5,2.408742E6,2.5480662E6,5.6724075E5,1.0004922E7,-9.507806E4,-2.4213939E5,1.8638932E6,1.2160582E6,1.7782486E6,1.3106222E6,9.25324E5,1.4587682E6,2.1916585E6,8.4541125E4,5.04562E5,3.3314594E4,1.25837586E5,1.7965412E6,4.6530703E5,8.706844E4,1.4286391E6,8.9410606E5,1.6842739E6,-1.1594794E5,9.921468E5,1.7901108E6,4.487041E6,4.5321555E6,2.5356065E6,1.0214935E6,2.2933045E6,9.875619E5,-4.691793E4,1.6805938E6,1.5261292E5,-2.3220631E5,3.7873475E5,1.0190793E6,3.7737725E6,2.2282755E6,6.148174E5,1.2851604E6,1.9695022E6,1.1110016E6,2.8831932E6,1.6648834E6,7.765872E5,9.9708006E5,1.721082E6,4.150984E5,1.8964375E3,2.887468E4,-2.2156825E5,2.0139855E5,1.553769E5,2.2031708E5,1.2151974E5,2.2095865E6,4.1502388E6,-1.4162544E5,2.1700945E5,4.9359334E5,7.448583E5,1.5357691E6,5.5556985E6,2.3709902E6,5.268852E6,3.8147842E6,1.310276E6,1.4856829E6,1.8040756E5,1.1876205E6,4.712148E6],"categories":[],"categories_nodes":[],"categories_segments":[],"categories_sizes":[],"default_left":[1,1,1,1,1,1,1,1,1,1,1,1,1,0,0,1,1,1,1,1,1,1,1,1,1,1,0,1,1,1,1,1,1,1,1,0,0,1,0,0,0,1,0,1,1,1,1,1,0,1,1,0,0,1,0,1,1,1,1,1,0,1,1,1,1,1,0,0,1,1,1,0,0,1,1,0,0,0,0,1,0,1,1,0,0,0,0,1,1,1,1,0,0,1,1,1,1,1,0,0,1,0,1,0,1,1,1,1,1,1,0,1,0,0,0,1,1,1,1,1,1,0,1,0,0,1,1,0,0,1,1,1,1,1,1,0,1,1,0,1,1,0,0,1,1,0,0,0,0,1,1,1,0,1,0,1,0,1,1,1,1,1,1,0,0,0,0,1,1,1,0,1,1,1,1,1,1,1,1,1,1,0,0,1,0,1,1,0,1,1,1,0,0,1,1,1,0,1,0,1,0,1,1,1,0,1,1,1,1,0,0,0,0,0,0,0,0,0,0,0,0,0,0,0,0,0,0,0,0,0,0,0,0,0,0,0,0,0,0,0,0,0,0,0,0,0,0,0,0,0,0,0,0,0,0,0,0,0,0,0,0,0,0,0,0,0,0,0,0,0,0,0,0,0,0,0,0,0,0,0,0,0,0],"id":6,"left_children":[1,3,5,7,9,11,13,15,17,19,21,23,25,-1,-1,27,29,31,33,35,37,39,41,43,45,47,-1,49,51,53,55,57,59,61,63,-1,-1,65,-1,-1,-1,67,-1,69,71,73,75,77,-1,79,81,-1,-1,83,-1,85,87,89,91,93,-1,95,97,99,101,103,-1,-1,105,107,109,-1,-1,111,113,-1,-1,-1,-1,115,-1,117,119,-1,-1,-1,-1,121,123,125,127,-1,-1,129,131,133,135,137,-1,-1,139,-1,141,-1,143,145,147,149,151,153,-1,155,-1,-1,-1,157,159,161,163,165,167,-1,169,-1,-1,171,173,-1,-1,175,177,179,181,183,185,-1,187,189,-1,191,193,-1,-1,195,197,-1,-1,-1,-1,199,201,203,-1,205,-1,207,-1,209,211,213,215,217,219,-1,-1,-1,-1,221,223,225,-1,227,229,231,233,235,237,239,241,243,245,-1,-1,247,-1,249,251,-1,253,255,257,-1,-1,259,261,263,-1,265,-1,267,-1,269,271,273,-1,275,277,279,281,-1,-1,-1,-1,-1,-1,-1,-1,-1,-1,-1,-1,-1,-1,-1,-1,-1,-1,-1,-1,-1,-1,-1,-1,-1,-1,-1,-1,-1,-1,-1,-1,-1,-1,-1,-1,-1,-1,-1,-1,-1,-1,-1,-1,-1,-1,-1,-1,-1,-1,-1,-1,-1,-1,-1,-1,-1,-1,-1,-1,-1,-1,-1,-1,-1,-1,-1,-1,-1,-1,-1,-1,-1,-1],"loss_changes":[2.4255978E15,8.978114E14,1.0272789E15,3.150906E14,8.854008E11,9.402929E14,1.2192338E12,4.686346E13,1.7869748E14,1.600106E11,1.564748E11,4.7881477E14,6.337224E12,0E0,0E0,3.6168054E13,2.7534977E11,9.771292E13,1.1519317E14,1.949093E10,4.8626663E10,3.509374E10,8.424889E10,3.6889474E14,2.484813E14,1.5152477E13,0E0,3.2452102E13,2.645121E12,6.9898076E9,4.666163E10,4.7351746E13,5.4069075E13,1.0807265E14,1.7111573E12,0E0,0E0,2.9244785E10,0E0,0E0,0E0,6.2799217E9,0E0,2.5620339E14,6.86215E12,2.4778794E14,4.545659E13,1.6995655E12,0E0,3.1529892E13,1.9666924E12,0E0,0E0,2.799108E9,0E0,1.8967364E10,5.5087464E10,4.4242995E13,3.6770152E10,5.30713E13,0E0,7.487846E13,8.013872E13,8.1426304E11,9.506901E10,3.0253515E10,0E0,0E0,3.0780424E10,2.034365E14,9.366196E13,0E0,0E0,1.5923377E14,7.4616E13,0E0,0E0,0E0,0E0,2.6691745E13,0E0,2.841104E12,4.9533053E11,0E0,0E0,0E0,0E0,2.308309E10,2.8996534E10,4.656335E13,2.0661744E12,0E0,0E0,3.38834E13,9.278958E12,8.278308E13,3.7300684E13,7.745759E13,0E0,0E0,9.0397586E11,0E0,2.0481638E10,0E0,3.5211182E9,8.895726E9,6.3430984E9,1.8347027E14,8.778779E13,6.874954E13,0E0,1.040174E14,0E0,0E0,0E0,2.598831E13,7.22419E13,9.5120104E11,1.7361336E12,3.5172385E10,3.0065107E12,0E0,9.254928E9,0E0,0E0,5.699502E13,1.0496397E13,0E0,0E0,2.680677E13,7.5161697E12,9.170711E12,1.5962328E11,8.204542E13,2.6408412E13,0E0,2.916786E12,6.1492926E13,0E0,3.6583244E10,3.3329997E11,0E0,0E0,2.911214E10,1.7091789E9,0E0,0E0,0E0,0E0,1.4203672E14,1.8394183E12,6.454866E13,0E0,6.9895224E13,0E0,9.996832E13,0E0,2.6006564E13,1.1730378E12,6.9275012E13,1.8844492E13,1.2325046E12,4.3404755E11,0E0,0E0,0E0,0E0,1.09471334E11,6.0736733E10,1.1736678E8,0E0,5.328444E13,4.523076E13,1.0308802E13,1.1508959E13,4.2962927E13,4.34091E13,1.5968198E12,3.7221908E12,1.0062773E13,4.9668653E11,0E0,0E0,8.194261E13,0E0,1.0057069E13,3.8315638E12,0E0,9.611667E11,6.977765E13,3.4444698E13,0E0,0E0,1.26871994E11,1.6800013E11,2.9164044E10,0E0,2.097152E7,0E0,1.4554195E14,0E0,3.02674E11,5.0583516E11,4.5894276E13,0E0,4.2454007E13,2.1549596E13,9.514104E13,2.1437759E12,0E0,0E0,0E0,0E0,0E0,0E0,0E0,0E0,0E0,0E0,0E0,0E0,0E0,0E0,0E0,0E0,0E0,0E0,0E0,0E0,0E0,0E0,0E0,0E0,0E0,0E0,0E0,0E0,0E0,0E0,0E0,0E0,0E0,0E0,0E0,0E0,0E0,0E0,0E0,0E0,0E0,0E0,0E0,0E0,0E0,0E0,0E0,0E0,0E0,0E0,0E0,0E0,0E0,0E0,0E0,0E0,0E0,0E0,0E0,0E0,0E0,0E0,0E0,0E0,0E0,0E0,0E0,0E0,0E0,0E0,0E0,0E0,0E0,0E0],"parents":[2147483647,0,0,1,1,2,2,3,3,4,4,5,5,6,6,7,7,8,8,9,9,10,10,11,11,12,12,15,15,16,16,17,17,18,18,19,19,20,20,21,21,22,22,23,23,24,24,25,25,27,27,28,28,29,29,30,30,31,31,32,32,33,33,34,34,37,37,41,41,43,43,44,44,45,45,46,46,47,47,49,49,50,50,53,53,55,55,56,56,57,57,58,58,59,59,61,61,62,62,63,63,64,64,65,65,68,68,69,69,70,70,73,73,74,74,79,79,81,81,82,82,87,87,88,88,89,89,90,90,93,93,94,94,95,95,96,96,97,97,100,100,102,102,104,104,105,105,106,106,107,107,108,108,109,109,111,111,115,115,116,116,117,117,118,118,119,119,120,120,122,122,125,125,126,126,129,129,130,130,131,131,132,132,133,133,134,134,136,136,137,137,139,139,140,140,143,143,144,144,149,149,150,150,151,151,153,153,155,155,157,157,158,158,159,159,160,160,161,161,162,162,167,167,168,168,169,169,171,171,172,172,173,173,174,174,175,175,176,176,177,177,178,178,179,179,180,180,183,183,185,185,186,186,188,188,189,189,190,190,193,193,194,194,195,195,197,197,199,199,201,201,202,202,203,203,205,205,206,206,207,207,208,208],"right_children":[2,4,6,8,10,12,14,16,18,20,22,24,26,-1,-1,28,30,32,34,36,38,40,42,44,46,48,-1,50,52,54,56,58,60,62,64,-1,-1,66,-1,-1,-1,68,-1,70,72,74,76,78,-1,80,82,-1,-1,84,-1,86,88,90,92,94,-1,96,98,100,102,104,-1,-1,106,108,110,-1,-1,112,114,-1,-1,-1,-1,116,-1,118,120,-1,-1,-1,-1,122,124,126,128,-1,-1,130,132,134,136,138,-1,-1,140,-1,142,-1,144,146,148,150,152,154,-1,156,-1,-1,-1,158,160,162,164,166,168,-1,170,-1,-1,172,174,-1,-1,176,178,180,182,184,186,-1,188,190,-1,192,194,-1,-1,196,198,-1,-1,-1,-1,200,202,204,-1,206,-1,208,-1,210,212,214,216,218,220,-1,-1,-1,-1,222,224,226,-1,228,230,232,234,236,238,240,242,244,246,-1,-1,248,-1,250,252,-1,254,256,258,-1,-1,260,262,264,-1,266,-1,268,-1,270,272,274,-1,276,278,280,282,-1,-1,-1,-1,-1,-1,-1,-1,-1,-1,-1,-1,-1,-1,-1,-1,-1,-1,-1,-1,-1,-1,-1,-1,-1,-1,-1,-1,-1,-1,-1,-1,-1,-1,-1,-1,-1,-1,-1,-1,-1,-1,-1,-1,-1,-1,-1,-1,-1,-1,-1,-1,-1,-1,-1,-1,-1,-1,-1,-1,-1,-1,-1,-1,-1,-1,-1,-1,-1,-1,-1,-1,-1,-1],"split_conditions":[2.5E0,5E-1,5E-1,1.5E0,2.5E0,5E-1,1.59E2,5E-1,2.5E0,9.25E1,1.5E0,5E-1,2.31E2,2.9862138E5,6.1227706E5,5E-1,9.5E1,1.405E2,5E-1,8.05E1,2.35E2,5E-1,5E-1,5E-1,5E-1,2.25E2,7.256223E5,5E-1,1.5E0,7.75E1,5E-1,5E-1,5E-1,1.655E2,1.975E2,1.35508125E4,1.7869041E4,5E-1,2.7931146E4,2.5100998E4,1.3905908E4,3.5E0,1.7200266E4,3.5E0,2.315E2,5E-1,2.315E2,2.5E0,3.343302E5,5E-1,5E-1,2.9642772E5,9.452715E4,7E0,1.6198572E4,2.5E0,6.5E0,5E-1,1.325E2,1.675E2,4.2082066E5,5E-1,5E-1,5E-1,3.5E0,1.5E0,1.350882E4,3.376247E4,2.35E2,5E-1,5E-1,3.8770628E5,5.0724084E5,5E-1,5E-1,1.19452414E5,1.01600194E6,2.6481488E5,6.704796E5,5E-1,1.689179E5,4.5E0,5E-1,1.16373E4,4.9759253E3,1.89294E4,4.410627E4,1.225E2,1.225E2,5E-1,1.125E2,-4.088396E4,-8.617731E3,5E-1,5E-1,5E-1,5E-1,5E-1,6.732505E5,-3.2112666E4,1.425E2,5.1743062E4,2.375E2,1.0805934E4,1.125E2,5E-1,5E-1,5E-1,5E-1,5E-1,8.900991E5,5E-1,8.813723E5,6.742496E4,7.8714906E5,5E-1,5E-1,5E-1,1.025E2,3.5E0,1.41E2,1.805172E4,5E-1,3.755055E4,1.7382117E4,5E-1,5E-1,3.1813959E4,-6.870246E4,1.525E2,5E-1,5E-1,1.715E2,5E-1,5E-1,7.7918086E4,1.1E2,5E-1,5.472069E5,5E-1,5E-1,2.3044713E4,6.858871E3,4.5E0,5E-1,1.7930152E4,2.6493244E4,8.688381E3,3.2239594E4,5E-1,1.93E2,5E-1,4.343685E5,7.5E0,5.879617E5,5E-1,8.753472E5,5E-1,2.5E0,1.075E2,1.215E2,1.055E2,5E-1,2.542859E5,4.5255957E4,1.2242364E5,3.4086715E4,8.75E1,2.5E0,1.475E2,2.826391E4,5E-1,5E-1,5E-1,1.14E2,5E-1,1.545E2,1.525E2,5E-1,2.35E2,9E0,3.2395514E4,-5.215025E3,5E-1,2.3668625E5,1.645E2,5E-1,1.7579936E5,5E-1,5E-1,5E-1,-5.4248813E3,-3.2572537E4,8E0,1.05E1,3.5E0,2.5154438E4,9E0,6.149183E3,5E-1,5.216573E5,1.74E2,3.5E0,5E-1,4.9073116E5,5E-1,5E-1,5E-1,1.55E2,8.445034E4,2.408742E5,2.5480662E5,5.6724074E4,1.0004922E6,-9.507807E3,-2.421394E4,1.8638933E5,1.2160583E5,1.7782486E5,1.3106223E5,9.25324E4,1.4587683E5,2.1916586E5,8.454112E3,5.04562E4,3.3314595E3,1.2583759E4,1.7965412E5,4.6530703E4,8.706844E3,1.4286392E5,8.941061E4,1.6842739E5,-1.1594794E4,9.921468E4,1.7901108E5,4.487041E5,4.5321556E5,2.5356066E5,1.0214935E5,2.2933045E5,9.875619E4,-4.691793E3,1.6805938E5,1.5261292E4,-2.322063E4,3.7873477E4,1.0190793E5,3.7737725E5,2.2282755E5,6.148174E4,1.2851604E5,1.9695023E5,1.11100164E5,2.8831934E5,1.6648834E5,7.765872E4,9.970801E4,1.721082E5,4.150984E4,1.8964375E2,2.887468E3,-2.2156826E4,2.0139855E4,1.553769E4,2.2031709E4,1.2151975E4,2.2095866E5,4.1502388E5,-1.4162544E4,2.1700945E4,4.9359336E4,7.4485836E4,1.5357692E5,5.555699E5,2.3709903E5,5.268852E5,3.8147844E5,1.310276E5,1.485683E5,1.8040756E4,1.18762055E5,4.712148E5],"split_indices":[1,150,136,1,0,215,2,19,0,2,1,235,2,0,0,18,2,2,94,2,2,236,236,67,18,2,0,185,0,2,12,91,215,2,2,0,0,236,0,0,0,3,0,1,2,123,2,0,0,174,10,0,0,3,0,0,3,89,2,2,0,174,227,234,3,0,0,0,2,11,123,0,0,227,9,0,0,0,0,123,0,3,234,0,0,0,0,2,2,152,2,0,0,152,37,185,234,17,0,0,2,0,2,0,2,4,9,91,147,201,0,212,0,0,0,221,12,234,2,3,2,0,9,0,0,127,10,0,0,2,3,14,2,148,234,0,2,235,0,12,12,0,0,3,11,0,0,0,0,154,2,120,0,3,0,60,0,148,3,2,2,2,3,0,0,0,0,2,0,2,0,199,234,236,2,225,2,2,10,2,3,0,0,225,0,2,10,0,9,91,185,0,0,3,3,3,0,3,0,221,0,2,0,60,0,194,148,89,2,0,0,0,0,0,0,0,0,0,0,0,0,0,0,0,0,0,0,0,0,0,0,0,0,0,0,0,0,0,0,0,0,0,0,0,0,0,0,0,0,0,0,0,0,0,0,0,0,0,0,0,0,0,0,0,0,0,0,0,0,0,0,0,0,0,0,0,0,0,0,0,0,0,0],"split_type":[0,0,0,0,0,0,0,0,0,0,0,0,0,0,0,0,0,0,0,0,0,0,0,0,0,0,0,0,0,0,0,0,0,0,0,0,0,0,0,0,0,0,0,0,0,0,0,0,0,0,0,0,0,0,0,0,0,0,0,0,0,0,0,0,0,0,0,0,0,0,0,0,0,0,0,0,0,0,0,0,0,0,0,0,0,0,0,0,0,0,0,0,0,0,0,0,0,0,0,0,0,0,0,0,0,0,0,0,0,0,0,0,0,0,0,0,0,0,0,0,0,0,0,0,0,0,0,0,0,0,0,0,0,0,0,0,0,0,0,0,0,0,0,0,0,0,0,0,0,0,0,0,0,0,0,0,0,0,0,0,0,0,0,0,0,0,0,0,0,0,0,0,0,0,0,0,0,0,0,0,0,0,0,0,0,0,0,0,0,0,0,0,0,0,0,0,0,0,0,0,0,0,0,0,0,0,0,0,0,0,0,0,0,0,0,0,0,0,0,0,0,0,0,0,0,0,0,0,0,0,0,0,0,0,0,0,0,0,0,0,0,0,0,0,0,0,0,0,0,0,0,0,0,0,0,0,0,0,0,0,0,0,0,0,0,0,0,0,0,0,0,0,0,0,0,0,0,0,0,0,0,0,0],"sum_hessian":[1.3229E4,8.378E3,4.851E3,7.433E3,9.45E2,4.788E3,6.3E1,1.987E3,5.446E3,6.19E2,3.26E2,4.744E3,4.4E1,3E0,6E1,1.895E3,9.2E1,1.442E3,4.004E3,1.09E2,5.1E2,1.91E2,1.35E2,2.921E3,1.823E3,1.8E1,2.6E1,1.884E3,1.1E1,3.3E1,5.9E1,1.151E3,2.91E2,3.939E3,6.5E1,3.7E1,7.2E1,4.91E2,1.9E1,1.84E2,7E0,1.26E2,9E0,2.845E3,7.6E1,1.819E3,4E0,1E1,8E0,1.745E3,1.39E2,9E0,2E0,1.5E1,1.8E1,7E0,5.2E1,1.139E3,1.2E1,2.78E2,1.3E1,2.311E3,1.628E3,5.2E1,1.3E1,4.79E2,1.2E1,5.7E1,6.9E1,2.586E3,2.59E2,4.9E1,2.7E1,1.81E3,9E0,1E0,3E0,2E0,8E0,1.695E3,5E1,1.02E2,3.7E1,1.2E1,3E0,3E0,4E0,4.1E1,1.1E1,1.129E3,1E1,1.1E1,1E0,2.16E2,6.2E1,2.247E3,6.4E1,1.626E3,2E0,1.4E1,3.8E1,1E0,1.2E1,6E0,4.73E2,3.6E1,3.3E1,1.755E3,8.31E2,2.57E2,2E0,1.808E3,2E0,2E0,7E0,1.675E3,2E1,9.8E1,4E0,1E1,2.7E1,2.8E1,1.3E1,7E0,4E0,1.012E3,1.17E2,2E0,8E0,1.94E2,2.2E1,5.3E1,9E0,2.046E3,2.01E2,1.5E1,4.9E1,1.622E3,4E0,9E0,2.9E1,1E1,2E0,1.66E2,3.07E2,1.3E1,2.3E1,1E0,3.2E1,1.692E3,6.3E1,8.2E2,1.1E1,2.49E2,8E0,1.807E3,1E0,1.665E3,1E1,2E0,1.8E1,5.1E1,4.7E1,3E0,1E0,9E0,1E0,2.5E1,2E0,2E0,1.1E1,9E2,1.12E2,8E1,3.7E1,8.9E1,1.05E2,9E0,1.3E1,4.9E1,4E0,8E0,1E0,1.999E3,4.7E1,9.2E1,1.09E2,1E1,3.9E1,1.194E3,4.28E2,1E0,8E0,3E0,2.6E1,1.47E2,1.9E1,3.06E2,1E0,1.676E3,1.6E1,8E0,5.5E1,8.15E2,5E0,1.68E2,8.1E1,1.797E3,1E1,1.655E3,1E1,9E0,1E0,1E0,1E0,6E0,1.2E1,3.9E1,1.2E1,1.4E1,3.3E1,1.2E1,1.3E1,1E0,1E0,1E0,1E0,8.68E2,3.2E1,3.8E1,7.4E1,5.2E1,2.8E1,1.6E1,2.1E1,8.3E1,6E0,1.4E1,9.1E1,5E0,4E0,7E0,6E0,4.4E1,5E0,3E0,1E0,1.989E3,1E1,8.7E1,5E0,9.6E1,1.3E1,2E0,3.7E1,1.095E3,9.9E1,3.44E2,8.4E1,2E0,1E0,2.4E1,2E0,1.05E2,4.2E1,3.02E2,4E0,1.636E3,4E1,3E0,5E0,3.3E1,2.2E1,8.13E2,2E0,1.63E2,5E0,7.6E1,5E0,1.739E3,5.8E1,1E0,9E0],"tree_param":{"num_deleted":"0","num_feature":"237","num_nodes":"283","size_leaf_vector":"0"}},{"base_weights":[1.3268001E6,1.032761E6,1.8343078E6,1.1379216E6,2.0528056E5,1.7858132E6,5.434396E6,8.308584E5,1.249782E6,1.8441997E5,2.4420498E5,1.7461325E6,5.9302455E6,8.6129756E5,2.0135714E5,1.238007E6,3.6572685E6,1.4914325E5,1.9165289E5,2.230906E5,2.722179E5,1.851513E6,8.882086E5,4.726801E6,6.5574755E6,8.506093E5,2.4684735E6,1.2774896E5,2.3971248E5,1.2281561E6,4.127206E6,1.7037248E6,3.8380035E6,8.702539E4,1.5381686E5,1.8877862E5,2.5277686E5,2.2604467E5,1.2689141E5,2.7918434E5,1.565224E5,1.811359E6,3.9631382E6,7.24459E5,1.2078252E6,5.672195E6,3.0461195E6,8.156129E5,1.2809886E6,2.6974922E6,8.822535E5,9.7331914E4,1.4663969E5,3.411595E5,2.1987686E5,1.2469752E6,-1.444294E5,9.1338094E5,3.9294235E6,1.9017719E5,1.22618516E5,1.3922328E5,2.281771E5,3.0444434E5,2.542663E5,1.8012926E6,9.792125E6,3.2522342E6,4.362836E6,1.1626721E6,6.9410144E5,1.1628904E6,1.8329618E6,2.4716052E6,6.1088145E6,5.9346875E5,8.8685525E5,1.1784795E6,1.5251322E6,1.05630875E5,4.602731E4,1.7509694E5,4.0577766E5,1.9315967E5,2.9506394E5,1.2798409E6,4.6638756E5,-9.137917E5,-3.732805E4,4.0722075E6,1.6677235E6,9.87971E4,1.9112545E5,2.3823E5,3.6456012E5,1.8371669E6,-4.408097E4,5.984876E5,1.4638251E6,-1.9291028E5,7.1128206E5,8.576879E5,1.2945819E6,1.9159299E6,5.431248E5,5.4565956E5,2.201398E6,1.7937698E6,8.534396E5,1.1223732E6,2.0536884E6,5.5931356E5,1.5632524E6,4.575169E4,1.1235875E5,5.148508E4,1.991392E5,1.6308795E5,2.4165395E5,3.4264875E5,1.5991547E5,1.3401131E6,8.3654675E5,1.6216173E5,6.1633306E5,-1.1213754E5,2.4854558E5,-1.6297081E5,2.664556E6,1.6847552E5,1.9437648E5,2.1176481E5,2.7619994E5,1.9455435E6,1.2225101E6,1.5577295E5,-6.514314E5,2.2259228E5,8.5468544E5,6.247513E5,1.76733E6,1.869385E5,-3.822375E5,6.810085E5,1.3761471E6,7.1735006E5,1.1973896E6,1.3064372E6,-2.2536E4,7.742205E5,3.5380134E5,2.1695158E6,6.7306694E5,8.7507075E5,-1.0612633E5,1.0298616E6,1.3993518E6,2.3521448E6,4.299316E5,1.6019668E6,6.034054E5,1.0079638E5,2.5673052E5,1.4012824E6,7.8207675E5,1.059903E6,2.408262E5,-3.553914E5,2.6980156E5,5.26635E5,8.168579E5,-2.9115488E5,-4.0409395E4,4.915591E5,1.9203998E5,1.2998634E5,1.8829081E5,1.822931E5,2.0500952E5,1.6611003E5,2.3908462E5,1.861635E6,2.7643248E6,1.4026124E6,6.220165E5,8.099852E4,5.290226E5,-7.674444E5,4.4818125E3,2.9231862E5,7.86685E4,1.4584765E6,5.1700906E4,1.3525786E6,6.722277E5,4.523521E5,1.6080504E6,9.427957E5,4.6848034E5,2.64434E5,1.2488144E6,3.39434E5,1.3120405E6,9.900845E5,1.707046E5,7.994087E5,2.6047245E5,2.7574335E6,6.895577E5,8.981378E5,-5.7876906E4,9.0408775E5,1.1497505E5,-1.2816299E5,2.5545019E5,6.12282E5,1.089281E6,1.194612E6,2.0220275E6,1.2556529E6,1.8400428E6,3.1648867E4,1.195457E5,7.285516E4,2.6682325E5,1.4734586E6,7.9396506E5,7.2768775E5,1.1143136E6,1.3617211E6,6.699727E5,4.5590272E5,-1.5941307E4,-3.713626E5,-8.186844E4,1.1265806E5,3.1001422E5,3.068403E5,5.859905E5,5.1605775E5,8.708677E5,-2.774021E5,3.9935156E4,2.0270616E5,3.2023E4,1.7531592E5,2.3077588E5,2.1047588E5,1.6382262E5,1.1262422E5,1.9477025E5,1.8414198E6,5.4622255E6,2.6217765E6,8.743365E6,1.3002041E6,2.107647E6,1.526859E6,-6.9718266E4,1.703053E5,-2.308828E5,6.845266E5,1.2463503E5,-4.9704497E5,-9.5257225E5,3.7317168E4,-4.7012125E4,2.4650138E5,-1.28498625E5,1.5761683E5,-1.3302344E5,4.2481694E5,6.861674E5,6.4181844E5,-5.8023438E4,7.119185E5,1.2698651E6,4.6555E3,7.5355294E5,1.2926746E6,3.6124588E5],"categories":[],"categories_nodes":[],"categories_segments":[],"categories_sizes":[],"default_left":[1,1,1,1,1,1,0,1,1,1,1,1,1,1,1,1,1,1,1,1,1,1,1,1,0,1,1,1,1,1,0,0,1,0,0,1,0,1,0,1,0,1,1,1,1,1,0,1,1,0,0,1,0,1,1,1,1,0,1,1,0,0,0,0,1,1,0,0,0,1,1,1,1,0,0,1,1,1,1,1,0,1,0,1,1,1,1,0,1,0,1,0,1,1,0,1,1,1,1,1,1,1,1,0,0,1,0,1,1,1,1,0,1,0,0,0,0,0,1,0,0,1,1,1,1,1,1,0,0,1,1,1,0,1,1,1,1,1,0,1,0,0,0,1,1,1,1,1,0,1,1,1,1,1,1,1,1,0,0,1,0,1,1,1,1,1,1,1,1,1,1,0,1,0,1,0,0,1,1,1,0,1,1,1,1,1,1,1,1,0,1,0,1,0,1,1,0,1,1,0,1,0,0,0,0,0,0,0,0,0,0,0,0,0,0,0,0,0,0,0,0,0,0,0,0,0,0,0,0,0,0,0,0,0,0,0,0,0,0,0,0,0,0,0,0,0,0,0,0,0,0,0,0,0,0,0,0,0,0,0,0,0,0,0,0,0,0,0,0,0,0,0,0,0,0,0,0,0,0,0,0],"id":7,"left_children":[1,3,5,7,9,11,-1,13,15,17,19,21,23,25,27,29,31,33,35,37,39,41,43,45,-1,47,49,51,53,55,-1,-1,57,-1,-1,59,-1,61,-1,63,-1,65,67,69,71,73,-1,75,77,-1,-1,79,-1,81,83,85,87,-1,89,91,-1,-1,-1,-1,93,95,-1,-1,-1,97,99,101,103,-1,-1,105,107,109,111,113,-1,115,-1,117,119,121,123,-1,125,-1,127,-1,129,131,-1,133,135,137,139,141,143,145,147,-1,-1,149,-1,151,153,155,157,-1,159,-1,-1,-1,-1,-1,161,-1,-1,163,165,167,169,171,173,-1,-1,175,177,179,-1,181,183,185,187,189,-1,191,-1,-1,-1,193,195,197,199,201,-1,203,205,207,209,211,213,215,217,-1,-1,219,-1,221,223,225,227,229,231,233,235,237,239,-1,241,-1,243,-1,-1,245,247,249,-1,251,253,255,257,259,261,263,265,-1,267,-1,269,-1,271,273,-1,275,277,-1,279,-1,-1,-1,-1,-1,-1,-1,-1,-1,-1,-1,-1,-1,-1,-1,-1,-1,-1,-1,-1,-1,-1,-1,-1,-1,-1,-1,-1,-1,-1,-1,-1,-1,-1,-1,-1,-1,-1,-1,-1,-1,-1,-1,-1,-1,-1,-1,-1,-1,-1,-1,-1,-1,-1,-1,-1,-1,-1,-1,-1,-1,-1,-1,-1,-1,-1,-1,-1,-1,-1,-1,-1,-1,-1,-1,-1,-1,-1,-1,-1],"loss_changes":[1.97238E15,7.288941E14,8.3737904E14,2.5430609E14,7.231022E11,7.772162E14,0E0,3.7919595E13,1.498863E14,1.29610285E11,1.3268261E11,4.273428E14,2.971849E12,3.0469706E13,2.3194082E11,1.4924636E14,2.6410022E12,1.8548523E10,4.2058383E10,2.5878856E10,6.5915585E10,3.510588E14,2.6392608E13,1.2911007E13,0E0,2.7346594E13,1.9794179E12,5.2637204E9,4.5722894E10,1.3979528E14,0E0,0E0,2.5604045E12,0E0,0E0,2.2203597E10,0E0,2.483028E9,0E0,2.5281167E9,0E0,3.156028E14,7.9745463E12,3.8091662E12,2.7842797E12,2.7323374E11,0E0,2.7105941E13,1.7064274E12,0E0,0E0,1.9504988E9,0E0,1.4794818E10,4.947129E10,1.3619234E14,6.0634715E12,0E0,3.1323062E11,2.2712156E10,0E0,0E0,0E0,0E0,3.6959683E10,2.7441835E14,0E0,0E0,0E0,2.691942E12,5.12049E12,5.5616303E12,2.9561455E10,0E0,0E0,3.1623895E13,3.84719E13,2.7527888E12,5.2469904E11,9.658368E7,0E0,1.634943E9,0E0,2.1838037E10,2.2377267E10,1.3557011E14,9.79901E12,0E0,1.4393512E12,0E0,5.908932E12,0E0,2.1548237E9,5.823267E9,0E0,2.6840969E14,9.811984E12,6.764859E11,2.2064786E12,5.748649E11,5.5238816E12,1.6677224E12,1.8095402E12,0E0,0E0,1.796823E13,0E0,1.791035E13,2.6557393E13,1.0956109E12,1.4118405E12,0E0,3.711204E11,0E0,0E0,0E0,0E0,0E0,3.8535823E9,0E0,0E0,1.5257818E14,8.157535E13,4.1626658E12,2.1778798E12,6.687854E11,9.784374E10,0E0,0E0,2.6623869E10,1.5049163E10,1.2671386E10,0E0,2.3215372E14,6.5315514E13,1.6596314E12,1.5253294E12,2.7180138E10,0E0,2.3134281E12,0E0,0E0,0E0,9.129322E11,2.0575997E12,1.8025839E12,3.414478E11,1.669333E11,0E0,2.4453405E13,9.273845E12,2.7681769E13,2.190665E12,2.7399475E13,2.6380953E11,1.2684079E12,3.891643E11,0E0,0E0,4.9281394E11,0E0,1.0592256E8,2.8301722E9,1.766214E14,7.2664304E12,5.1694226E13,9.340237E12,2.6387677E10,3.5054315E11,1.163934E12,2.4916682E11,0E0,7.5368E11,0E0,1.5696724E10,0E0,0E0,2.7195867E10,1.2575048E10,7.189496E9,0E0,2.1820152E14,2.4896127E14,3.1194347E13,8.9611724E13,1.4876823E12,5.4352255E11,3.77523E11,8.517646E9,0E0,1.3598345E11,0E0,9.922773E10,0E0,7.672976E11,4.2403634E11,0E0,6.0621534E11,2.7731904E12,0E0,3.9103496E10,0E0,0E0,0E0,0E0,0E0,0E0,0E0,0E0,0E0,0E0,0E0,0E0,0E0,0E0,0E0,0E0,0E0,0E0,0E0,0E0,0E0,0E0,0E0,0E0,0E0,0E0,0E0,0E0,0E0,0E0,0E0,0E0,0E0,0E0,0E0,0E0,0E0,0E0,0E0,0E0,0E0,0E0,0E0,0E0,0E0,0E0,0E0,0E0,0E0,0E0,0E0,0E0,0E0,0E0,0E0,0E0,0E0,0E0,0E0,0E0,0E0,0E0,0E0,0E0,0E0,0E0,0E0,0E0,0E0,0E0,0E0,0E0,0E0,0E0,0E0,0E0,0E0,0E0,0E0,0E0],"parents":[2147483647,0,0,1,1,2,2,3,3,4,4,5,5,7,7,8,8,9,9,10,10,11,11,12,12,13,13,14,14,15,15,16,16,17,17,18,18,19,19,20,20,21,21,22,22,23,23,25,25,26,26,27,27,28,28,29,29,32,32,35,35,37,37,39,39,41,41,42,42,43,43,44,44,45,45,47,47,48,48,51,51,53,53,54,54,55,55,56,56,58,58,59,59,64,64,65,65,69,69,70,70,71,71,72,72,75,75,76,76,77,77,78,78,79,79,81,81,83,83,84,84,85,85,86,86,88,88,90,90,92,92,93,93,95,95,96,96,97,97,98,98,99,99,100,100,101,101,102,102,105,105,107,107,108,108,109,109,110,110,112,112,118,118,121,121,122,122,123,123,124,124,125,125,126,126,129,129,130,130,131,131,133,133,134,134,135,135,136,136,137,137,139,139,143,143,144,144,145,145,146,146,147,147,149,149,150,150,151,151,152,152,153,153,154,154,155,155,156,156,159,159,161,161,162,162,163,163,164,164,165,165,166,166,167,167,168,168,169,169,170,170,172,172,174,174,177,177,178,178,179,179,181,181,182,182,183,183,184,184,185,185,186,186,187,187,188,188,190,190,192,192,194,194,195,195,197,197,198,198,200,200],"right_children":[2,4,6,8,10,12,-1,14,16,18,20,22,24,26,28,30,32,34,36,38,40,42,44,46,-1,48,50,52,54,56,-1,-1,58,-1,-1,60,-1,62,-1,64,-1,66,68,70,72,74,-1,76,78,-1,-1,80,-1,82,84,86,88,-1,90,92,-1,-1,-1,-1,94,96,-1,-1,-1,98,100,102,104,-1,-1,106,108,110,112,114,-1,116,-1,118,120,122,124,-1,126,-1,128,-1,130,132,-1,134,136,138,140,142,144,146,148,-1,-1,150,-1,152,154,156,158,-1,160,-1,-1,-1,-1,-1,162,-1,-1,164,166,168,170,172,174,-1,-1,176,178,180,-1,182,184,186,188,190,-1,192,-1,-1,-1,194,196,198,200,202,-1,204,206,208,210,212,214,216,218,-1,-1,220,-1,222,224,226,228,230,232,234,236,238,240,-1,242,-1,244,-1,-1,246,248,250,-1,252,254,256,258,260,262,264,266,-1,268,-1,270,-1,272,274,-1,276,278,-1,280,-1,-1,-1,-1,-1,-1,-1,-1,-1,-1,-1,-1,-1,-1,-1,-1,-1,-1,-1,-1,-1,-1,-1,-1,-1,-1,-1,-1,-1,-1,-1,-1,-1,-1,-1,-1,-1,-1,-1,-1,-1,-1,-1,-1,-1,-1,-1,-1,-1,-1,-1,-1,-1,-1,-1,-1,-1,-1,-1,-1,-1,-1,-1,-1,-1,-1,-1,-1,-1,-1,-1,-1,-1,-1,-1,-1,-1,-1,-1,-1],"split_conditions":[2.5E0,5E-1,5E-1,1.5E0,2.5E0,5E-1,5.434396E5,5E-1,5E-1,9.25E1,1.5E0,5E-1,2.31E2,5E-1,9.5E1,5E-1,1.04E2,1.5E0,2.35E2,5E-1,5E-1,5E-1,2.125E2,2.25E2,6.5574756E5,5E-1,1.5E0,7.75E1,5E-1,5E-1,4.127206E5,1.7037248E5,5E-1,8.702539E3,1.5381687E4,5E-1,2.5277686E4,5E-1,1.2689141E4,3.5E0,1.5652241E4,5E-1,2.095E2,1.53E2,3.75E2,2.5E0,3.0461197E5,8.05E1,5E-1,